digraph Tree {
node [shape=box, style="filled", color="black"] ;
0 [label=<Prefix_Suffix &le; 0.5<br/>entropy = 0.991<br/>samples = 8000<br/>value = [3552, 4448]<br/>class = Not phish>, fillcolor="#399de533"] ;
1 [label=<having_Sub_Domain &le; 0.5<br/>entropy = 0.999<br/>samples = 6920<br/>value = [3552, 3368]<br/>class = Phish>, fillcolor="#e581390d"] ;
0 -> 1 [labeldistance=2.5, labelangle=45, headlabel="True"] ;
2 [label=<URL_of_Anchor &le; 1.5<br/>entropy = 0.806<br/>samples = 2390<br/>value = [589, 1801]<br/>class = Not phish>, fillcolor="#399de5ac"] ;
1 -> 2 ;
3 [label=<URL_of_Anchor &le; 0.5<br/>entropy = 0.436<br/>samples = 779<br/>value = [70, 709]<br/>class = Not phish>, fillcolor="#399de5e6"] ;
2 -> 3 ;
4 [label=<web_traffic &le; 1.5<br/>entropy = 0.82<br/>samples = 227<br/>value = [58, 169]<br/>class = Not phish>, fillcolor="#399de5a7"] ;
3 -> 4 ;
5 [label=<Request_URL &le; 1.5<br/>entropy = 0.659<br/>samples = 135<br/>value = [23, 112]<br/>class = Not phish>, fillcolor="#399de5cb"] ;
4 -> 5 ;
6 [label=<SFH &le; 2.5<br/>entropy = 0.874<br/>samples = 51<br/>value = [15, 36]<br/>class = Not phish>, fillcolor="#399de595"] ;
5 -> 6 ;
7 [label=<age_of_domain &le; 1.5<br/>entropy = 0.933<br/>samples = 43<br/>value = [15, 28]<br/>class = Not phish>, fillcolor="#399de576"] ;
6 -> 7 ;
8 [label=<Page_Rank &le; 1.5<br/>entropy = 0.811<br/>samples = 32<br/>value = [8, 24]<br/>class = Not phish>, fillcolor="#399de5aa"] ;
7 -> 8 ;
9 [label=<Links_pointing_to_page &le; 1.5<br/>entropy = 0.391<br/>samples = 13<br/>value = [1, 12]<br/>class = Not phish>, fillcolor="#399de5ea"] ;
8 -> 9 ;
10 [label=<entropy = 0.0<br/>samples = 10<br/>value = [0, 10]<br/>class = Not phish>, fillcolor="#399de5ff"] ;
9 -> 10 ;
11 [label=<popUpWidnow &le; 0.5<br/>entropy = 0.918<br/>samples = 3<br/>value = [1, 2]<br/>class = Not phish>, fillcolor="#399de57f"] ;
9 -> 11 ;
12 [label=<entropy = 0.0<br/>samples = 1<br/>value = [0, 1]<br/>class = Not phish>, fillcolor="#399de5ff"] ;
11 -> 12 ;
13 [label=<double_slash_redirecting &le; 1.0<br/>entropy = 1.0<br/>samples = 2<br/>value = [1, 1]<br/>class = Phish>, fillcolor="#e5813900"] ;
11 -> 13 ;
14 [label=<entropy = 0.0<br/>samples = 1<br/>value = [0, 1]<br/>class = Not phish>, fillcolor="#399de5ff"] ;
13 -> 14 ;
15 [label=<entropy = 0.0<br/>samples = 1<br/>value = [1, 0]<br/>class = Phish>, fillcolor="#e58139ff"] ;
13 -> 15 ;
16 [label=<having_At_Symbol &le; 1.5<br/>entropy = 0.949<br/>samples = 19<br/>value = [7, 12]<br/>class = Not phish>, fillcolor="#399de56a"] ;
8 -> 16 ;
17 [label=<entropy = 0.0<br/>samples = 4<br/>value = [0, 4]<br/>class = Not phish>, fillcolor="#399de5ff"] ;
16 -> 17 ;
18 [label=<Google_Index &le; 1.5<br/>entropy = 0.997<br/>samples = 15<br/>value = [7, 8]<br/>class = Not phish>, fillcolor="#399de520"] ;
16 -> 18 ;
19 [label=<entropy = 0.0<br/>samples = 2<br/>value = [2, 0]<br/>class = Phish>, fillcolor="#e58139ff"] ;
18 -> 19 ;
20 [label=<Links_in_tags &le; 1.5<br/>entropy = 0.961<br/>samples = 13<br/>value = [5, 8]<br/>class = Not phish>, fillcolor="#399de560"] ;
18 -> 20 ;
21 [label=<entropy = 0.0<br/>samples = 4<br/>value = [0, 4]<br/>class = Not phish>, fillcolor="#399de5ff"] ;
20 -> 21 ;
22 [label=<Links_in_tags &le; 2.5<br/>entropy = 0.991<br/>samples = 9<br/>value = [5, 4]<br/>class = Phish>, fillcolor="#e5813933"] ;
20 -> 22 ;
23 [label=<DNSRecord &le; 0.5<br/>entropy = 0.863<br/>samples = 7<br/>value = [5, 2]<br/>class = Phish>, fillcolor="#e5813999"] ;
22 -> 23 ;
24 [label=<port &le; 0.5<br/>entropy = 0.918<br/>samples = 3<br/>value = [1, 2]<br/>class = Not phish>, fillcolor="#399de57f"] ;
23 -> 24 ;
25 [label=<entropy = 0.0<br/>samples = 1<br/>value = [1, 0]<br/>class = Phish>, fillcolor="#e58139ff"] ;
24 -> 25 ;
26 [label=<entropy = 0.0<br/>samples = 2<br/>value = [0, 2]<br/>class = Not phish>, fillcolor="#399de5ff"] ;
24 -> 26 ;
27 [label=<entropy = 0.0<br/>samples = 4<br/>value = [4, 0]<br/>class = Phish>, fillcolor="#e58139ff"] ;
23 -> 27 ;
28 [label=<entropy = 0.0<br/>samples = 2<br/>value = [0, 2]<br/>class = Not phish>, fillcolor="#399de5ff"] ;
22 -> 28 ;
29 [label=<having_At_Symbol &le; 1.5<br/>entropy = 0.946<br/>samples = 11<br/>value = [7, 4]<br/>class = Phish>, fillcolor="#e581396d"] ;
7 -> 29 ;
30 [label=<SFH &le; 1.0<br/>entropy = 0.65<br/>samples = 6<br/>value = [5, 1]<br/>class = Phish>, fillcolor="#e58139cc"] ;
29 -> 30 ;
31 [label=<entropy = 0.0<br/>samples = 1<br/>value = [0, 1]<br/>class = Not phish>, fillcolor="#399de5ff"] ;
30 -> 31 ;
32 [label=<entropy = 0.0<br/>samples = 5<br/>value = [5, 0]<br/>class = Phish>, fillcolor="#e58139ff"] ;
30 -> 32 ;
33 [label=<Domain_registeration_length &le; 0.5<br/>entropy = 0.971<br/>samples = 5<br/>value = [2, 3]<br/>class = Not phish>, fillcolor="#399de555"] ;
29 -> 33 ;
34 [label=<entropy = 0.0<br/>samples = 2<br/>value = [2, 0]<br/>class = Phish>, fillcolor="#e58139ff"] ;
33 -> 34 ;
35 [label=<entropy = 0.0<br/>samples = 3<br/>value = [0, 3]<br/>class = Not phish>, fillcolor="#399de5ff"] ;
33 -> 35 ;
36 [label=<entropy = 0.0<br/>samples = 8<br/>value = [0, 8]<br/>class = Not phish>, fillcolor="#399de5ff"] ;
6 -> 36 ;
37 [label=<Abnormal_URL &le; 0.5<br/>entropy = 0.454<br/>samples = 84<br/>value = [8, 76]<br/>class = Not phish>, fillcolor="#399de5e4"] ;
5 -> 37 ;
38 [label=<popUpWidnow &le; 0.5<br/>entropy = 0.954<br/>samples = 8<br/>value = [3, 5]<br/>class = Not phish>, fillcolor="#399de566"] ;
37 -> 38 ;
39 [label=<entropy = 0.0<br/>samples = 2<br/>value = [2, 0]<br/>class = Phish>, fillcolor="#e58139ff"] ;
38 -> 39 ;
40 [label=<SFH &le; 1.5<br/>entropy = 0.65<br/>samples = 6<br/>value = [1, 5]<br/>class = Not phish>, fillcolor="#399de5cc"] ;
38 -> 40 ;
41 [label=<entropy = 0.0<br/>samples = 1<br/>value = [1, 0]<br/>class = Phish>, fillcolor="#e58139ff"] ;
40 -> 41 ;
42 [label=<entropy = 0.0<br/>samples = 5<br/>value = [0, 5]<br/>class = Not phish>, fillcolor="#399de5ff"] ;
40 -> 42 ;
43 [label=<Page_Rank &le; 1.5<br/>entropy = 0.35<br/>samples = 76<br/>value = [5, 71]<br/>class = Not phish>, fillcolor="#399de5ed"] ;
37 -> 43 ;
44 [label=<entropy = 0.0<br/>samples = 31<br/>value = [0, 31]<br/>class = Not phish>, fillcolor="#399de5ff"] ;
43 -> 44 ;
45 [label=<Links_in_tags &le; 1.5<br/>entropy = 0.503<br/>samples = 45<br/>value = [5, 40]<br/>class = Not phish>, fillcolor="#399de5df"] ;
43 -> 45 ;
46 [label=<entropy = 0.0<br/>samples = 15<br/>value = [0, 15]<br/>class = Not phish>, fillcolor="#399de5ff"] ;
45 -> 46 ;
47 [label=<Links_in_tags &le; 2.5<br/>entropy = 0.65<br/>samples = 30<br/>value = [5, 25]<br/>class = Not phish>, fillcolor="#399de5cc"] ;
45 -> 47 ;
48 [label=<Favicon &le; 0.5<br/>entropy = 0.985<br/>samples = 7<br/>value = [3, 4]<br/>class = Not phish>, fillcolor="#399de540"] ;
47 -> 48 ;
49 [label=<entropy = 0.0<br/>samples = 2<br/>value = [0, 2]<br/>class = Not phish>, fillcolor="#399de5ff"] ;
48 -> 49 ;
50 [label=<Shortining_Service &le; 1.0<br/>entropy = 0.971<br/>samples = 5<br/>value = [3, 2]<br/>class = Phish>, fillcolor="#e5813955"] ;
48 -> 50 ;
51 [label=<entropy = 0.0<br/>samples = 1<br/>value = [0, 1]<br/>class = Not phish>, fillcolor="#399de5ff"] ;
50 -> 51 ;
52 [label=<Links_pointing_to_page &le; 1.5<br/>entropy = 0.811<br/>samples = 4<br/>value = [3, 1]<br/>class = Phish>, fillcolor="#e58139aa"] ;
50 -> 52 ;
53 [label=<entropy = 0.0<br/>samples = 3<br/>value = [3, 0]<br/>class = Phish>, fillcolor="#e58139ff"] ;
52 -> 53 ;
54 [label=<entropy = 0.0<br/>samples = 1<br/>value = [0, 1]<br/>class = Not phish>, fillcolor="#399de5ff"] ;
52 -> 54 ;
55 [label=<web_traffic &le; 0.5<br/>entropy = 0.426<br/>samples = 23<br/>value = [2, 21]<br/>class = Not phish>, fillcolor="#399de5e7"] ;
47 -> 55 ;
56 [label=<age_of_domain &le; 1.5<br/>entropy = 1.0<br/>samples = 4<br/>value = [2, 2]<br/>class = Phish>, fillcolor="#e5813900"] ;
55 -> 56 ;
57 [label=<entropy = 0.0<br/>samples = 2<br/>value = [2, 0]<br/>class = Phish>, fillcolor="#e58139ff"] ;
56 -> 57 ;
58 [label=<entropy = 0.0<br/>samples = 2<br/>value = [0, 2]<br/>class = Not phish>, fillcolor="#399de5ff"] ;
56 -> 58 ;
59 [label=<entropy = 0.0<br/>samples = 19<br/>value = [0, 19]<br/>class = Not phish>, fillcolor="#399de5ff"] ;
55 -> 59 ;
60 [label=<SFH &le; 1.5<br/>entropy = 0.958<br/>samples = 92<br/>value = [35, 57]<br/>class = Not phish>, fillcolor="#399de562"] ;
4 -> 60 ;
61 [label=<URL_Length &le; 0.5<br/>entropy = 0.323<br/>samples = 17<br/>value = [1, 16]<br/>class = Not phish>, fillcolor="#399de5ef"] ;
60 -> 61 ;
62 [label=<Abnormal_URL &le; 0.5<br/>entropy = 1.0<br/>samples = 2<br/>value = [1, 1]<br/>class = Phish>, fillcolor="#e5813900"] ;
61 -> 62 ;
63 [label=<entropy = 0.0<br/>samples = 1<br/>value = [0, 1]<br/>class = Not phish>, fillcolor="#399de5ff"] ;
62 -> 63 ;
64 [label=<entropy = 0.0<br/>samples = 1<br/>value = [1, 0]<br/>class = Phish>, fillcolor="#e58139ff"] ;
62 -> 64 ;
65 [label=<entropy = 0.0<br/>samples = 15<br/>value = [0, 15]<br/>class = Not phish>, fillcolor="#399de5ff"] ;
61 -> 65 ;
66 [label=<SFH &le; 2.5<br/>entropy = 0.994<br/>samples = 75<br/>value = [34, 41]<br/>class = Not phish>, fillcolor="#399de52c"] ;
60 -> 66 ;
67 [label=<HTTPS_token &le; 0.5<br/>entropy = 0.998<br/>samples = 61<br/>value = [32, 29]<br/>class = Phish>, fillcolor="#e5813918"] ;
66 -> 67 ;
68 [label=<entropy = 0.0<br/>samples = 7<br/>value = [7, 0]<br/>class = Phish>, fillcolor="#e58139ff"] ;
67 -> 68 ;
69 [label=<Abnormal_URL &le; 0.5<br/>entropy = 0.996<br/>samples = 54<br/>value = [25, 29]<br/>class = Not phish>, fillcolor="#399de523"] ;
67 -> 69 ;
70 [label=<entropy = 0.0<br/>samples = 3<br/>value = [0, 3]<br/>class = Not phish>, fillcolor="#399de5ff"] ;
69 -> 70 ;
71 [label=<Domain_registeration_length &le; 0.5<br/>entropy = 1.0<br/>samples = 51<br/>value = [25, 26]<br/>class = Not phish>, fillcolor="#399de50a"] ;
69 -> 71 ;
72 [label=<Links_in_tags &le; 0.5<br/>entropy = 0.874<br/>samples = 17<br/>value = [12, 5]<br/>class = Phish>, fillcolor="#e5813995"] ;
71 -> 72 ;
73 [label=<entropy = 0.0<br/>samples = 4<br/>value = [4, 0]<br/>class = Phish>, fillcolor="#e58139ff"] ;
72 -> 73 ;
74 [label=<DNSRecord &le; 1.5<br/>entropy = 0.961<br/>samples = 13<br/>value = [8, 5]<br/>class = Phish>, fillcolor="#e5813960"] ;
72 -> 74 ;
75 [label=<HTTPS_token &le; 1.5<br/>entropy = 0.65<br/>samples = 6<br/>value = [5, 1]<br/>class = Phish>, fillcolor="#e58139cc"] ;
74 -> 75 ;
76 [label=<entropy = 0.0<br/>samples = 1<br/>value = [0, 1]<br/>class = Not phish>, fillcolor="#399de5ff"] ;
75 -> 76 ;
77 [label=<entropy = 0.0<br/>samples = 5<br/>value = [5, 0]<br/>class = Phish>, fillcolor="#e58139ff"] ;
75 -> 77 ;
78 [label=<Links_in_tags &le; 2.5<br/>entropy = 0.985<br/>samples = 7<br/>value = [3, 4]<br/>class = Not phish>, fillcolor="#399de540"] ;
74 -> 78 ;
79 [label=<Links_pointing_to_page &le; 1.5<br/>entropy = 0.971<br/>samples = 5<br/>value = [3, 2]<br/>class = Phish>, fillcolor="#e5813955"] ;
78 -> 79 ;
80 [label=<Request_URL &le; 1.5<br/>entropy = 0.811<br/>samples = 4<br/>value = [3, 1]<br/>class = Phish>, fillcolor="#e58139aa"] ;
79 -> 80 ;
81 [label=<age_of_domain &le; 0.5<br/>entropy = 1.0<br/>samples = 2<br/>value = [1, 1]<br/>class = Phish>, fillcolor="#e5813900"] ;
80 -> 81 ;
82 [label=<entropy = 0.0<br/>samples = 1<br/>value = [1, 0]<br/>class = Phish>, fillcolor="#e58139ff"] ;
81 -> 82 ;
83 [label=<entropy = 0.0<br/>samples = 1<br/>value = [0, 1]<br/>class = Not phish>, fillcolor="#399de5ff"] ;
81 -> 83 ;
84 [label=<entropy = 0.0<br/>samples = 2<br/>value = [2, 0]<br/>class = Phish>, fillcolor="#e58139ff"] ;
80 -> 84 ;
85 [label=<entropy = 0.0<br/>samples = 1<br/>value = [0, 1]<br/>class = Not phish>, fillcolor="#399de5ff"] ;
79 -> 85 ;
86 [label=<entropy = 0.0<br/>samples = 2<br/>value = [0, 2]<br/>class = Not phish>, fillcolor="#399de5ff"] ;
78 -> 86 ;
87 [label=<having_IP_Address &le; 0.5<br/>entropy = 0.96<br/>samples = 34<br/>value = [13, 21]<br/>class = Not phish>, fillcolor="#399de561"] ;
71 -> 87 ;
88 [label=<Links_in_tags &le; 1.5<br/>entropy = 0.918<br/>samples = 9<br/>value = [6, 3]<br/>class = Phish>, fillcolor="#e581397f"] ;
87 -> 88 ;
89 [label=<entropy = 0.0<br/>samples = 2<br/>value = [0, 2]<br/>class = Not phish>, fillcolor="#399de5ff"] ;
88 -> 89 ;
90 [label=<Google_Index &le; 1.5<br/>entropy = 0.592<br/>samples = 7<br/>value = [6, 1]<br/>class = Phish>, fillcolor="#e58139d4"] ;
88 -> 90 ;
91 [label=<web_traffic &le; 2.5<br/>entropy = 1.0<br/>samples = 2<br/>value = [1, 1]<br/>class = Phish>, fillcolor="#e5813900"] ;
90 -> 91 ;
92 [label=<entropy = 0.0<br/>samples = 1<br/>value = [0, 1]<br/>class = Not phish>, fillcolor="#399de5ff"] ;
91 -> 92 ;
93 [label=<entropy = 0.0<br/>samples = 1<br/>value = [1, 0]<br/>class = Phish>, fillcolor="#e58139ff"] ;
91 -> 93 ;
94 [label=<entropy = 0.0<br/>samples = 5<br/>value = [5, 0]<br/>class = Phish>, fillcolor="#e58139ff"] ;
90 -> 94 ;
95 [label=<Google_Index &le; 1.5<br/>entropy = 0.855<br/>samples = 25<br/>value = [7, 18]<br/>class = Not phish>, fillcolor="#399de59c"] ;
87 -> 95 ;
96 [label=<Request_URL &le; 1.5<br/>entropy = 0.918<br/>samples = 6<br/>value = [4, 2]<br/>class = Phish>, fillcolor="#e581397f"] ;
95 -> 96 ;
97 [label=<entropy = 0.0<br/>samples = 3<br/>value = [3, 0]<br/>class = Phish>, fillcolor="#e58139ff"] ;
96 -> 97 ;
98 [label=<web_traffic &le; 2.5<br/>entropy = 0.918<br/>samples = 3<br/>value = [1, 2]<br/>class = Not phish>, fillcolor="#399de57f"] ;
96 -> 98 ;
99 [label=<entropy = 0.0<br/>samples = 1<br/>value = [1, 0]<br/>class = Phish>, fillcolor="#e58139ff"] ;
98 -> 99 ;
100 [label=<entropy = 0.0<br/>samples = 2<br/>value = [0, 2]<br/>class = Not phish>, fillcolor="#399de5ff"] ;
98 -> 100 ;
101 [label=<age_of_domain &le; 1.5<br/>entropy = 0.629<br/>samples = 19<br/>value = [3, 16]<br/>class = Not phish>, fillcolor="#399de5cf"] ;
95 -> 101 ;
102 [label=<entropy = 0.0<br/>samples = 12<br/>value = [0, 12]<br/>class = Not phish>, fillcolor="#399de5ff"] ;
101 -> 102 ;
103 [label=<Favicon &le; 0.5<br/>entropy = 0.985<br/>samples = 7<br/>value = [3, 4]<br/>class = Not phish>, fillcolor="#399de540"] ;
101 -> 103 ;
104 [label=<entropy = 0.0<br/>samples = 2<br/>value = [0, 2]<br/>class = Not phish>, fillcolor="#399de5ff"] ;
103 -> 104 ;
105 [label=<URL_Length &le; 2.0<br/>entropy = 0.971<br/>samples = 5<br/>value = [3, 2]<br/>class = Phish>, fillcolor="#e5813955"] ;
103 -> 105 ;
106 [label=<entropy = 0.0<br/>samples = 2<br/>value = [0, 2]<br/>class = Not phish>, fillcolor="#399de5ff"] ;
105 -> 106 ;
107 [label=<entropy = 0.0<br/>samples = 3<br/>value = [3, 0]<br/>class = Phish>, fillcolor="#e58139ff"] ;
105 -> 107 ;
108 [label=<URL_Length &le; 2.0<br/>entropy = 0.592<br/>samples = 14<br/>value = [2, 12]<br/>class = Not phish>, fillcolor="#399de5d4"] ;
66 -> 108 ;
109 [label=<entropy = 0.0<br/>samples = 2<br/>value = [2, 0]<br/>class = Phish>, fillcolor="#e58139ff"] ;
108 -> 109 ;
110 [label=<entropy = 0.0<br/>samples = 12<br/>value = [0, 12]<br/>class = Not phish>, fillcolor="#399de5ff"] ;
108 -> 110 ;
111 [label=<Redirect &le; 0.5<br/>entropy = 0.151<br/>samples = 552<br/>value = [12, 540]<br/>class = Not phish>, fillcolor="#399de5f9"] ;
3 -> 111 ;
112 [label=<Google_Index &le; 1.5<br/>entropy = 0.109<br/>samples = 487<br/>value = [7, 480]<br/>class = Not phish>, fillcolor="#399de5fb"] ;
111 -> 112 ;
113 [label=<having_At_Symbol &le; 1.5<br/>entropy = 0.275<br/>samples = 127<br/>value = [6, 121]<br/>class = Not phish>, fillcolor="#399de5f2"] ;
112 -> 113 ;
114 [label=<Request_URL &le; 1.5<br/>entropy = 0.605<br/>samples = 27<br/>value = [4, 23]<br/>class = Not phish>, fillcolor="#399de5d3"] ;
113 -> 114 ;
115 [label=<entropy = 0.0<br/>samples = 12<br/>value = [0, 12]<br/>class = Not phish>, fillcolor="#399de5ff"] ;
114 -> 115 ;
116 [label=<DNSRecord &le; 0.5<br/>entropy = 0.837<br/>samples = 15<br/>value = [4, 11]<br/>class = Not phish>, fillcolor="#399de5a2"] ;
114 -> 116 ;
117 [label=<entropy = 0.0<br/>samples = 4<br/>value = [0, 4]<br/>class = Not phish>, fillcolor="#399de5ff"] ;
116 -> 117 ;
118 [label=<having_IP_Address &le; 0.5<br/>entropy = 0.946<br/>samples = 11<br/>value = [4, 7]<br/>class = Not phish>, fillcolor="#399de56d"] ;
116 -> 118 ;
119 [label=<entropy = 0.0<br/>samples = 2<br/>value = [2, 0]<br/>class = Phish>, fillcolor="#e58139ff"] ;
118 -> 119 ;
120 [label=<Favicon &le; 0.5<br/>entropy = 0.764<br/>samples = 9<br/>value = [2, 7]<br/>class = Not phish>, fillcolor="#399de5b6"] ;
118 -> 120 ;
121 [label=<entropy = 0.0<br/>samples = 5<br/>value = [0, 5]<br/>class = Not phish>, fillcolor="#399de5ff"] ;
120 -> 121 ;
122 [label=<having_At_Symbol &le; 0.5<br/>entropy = 1.0<br/>samples = 4<br/>value = [2, 2]<br/>class = Phish>, fillcolor="#e5813900"] ;
120 -> 122 ;
123 [label=<entropy = 0.0<br/>samples = 1<br/>value = [1, 0]<br/>class = Phish>, fillcolor="#e58139ff"] ;
122 -> 123 ;
124 [label=<Google_Index &le; 0.5<br/>entropy = 0.918<br/>samples = 3<br/>value = [1, 2]<br/>class = Not phish>, fillcolor="#399de57f"] ;
122 -> 124 ;
125 [label=<entropy = 0.0<br/>samples = 2<br/>value = [0, 2]<br/>class = Not phish>, fillcolor="#399de5ff"] ;
124 -> 125 ;
126 [label=<entropy = 0.0<br/>samples = 1<br/>value = [1, 0]<br/>class = Phish>, fillcolor="#e58139ff"] ;
124 -> 126 ;
127 [label=<Links_in_tags &le; 1.5<br/>entropy = 0.141<br/>samples = 100<br/>value = [2, 98]<br/>class = Not phish>, fillcolor="#399de5fa"] ;
113 -> 127 ;
128 [label=<entropy = 0.0<br/>samples = 46<br/>value = [0, 46]<br/>class = Not phish>, fillcolor="#399de5ff"] ;
127 -> 128 ;
129 [label=<SFH &le; 2.5<br/>entropy = 0.229<br/>samples = 54<br/>value = [2, 52]<br/>class = Not phish>, fillcolor="#399de5f5"] ;
127 -> 129 ;
130 [label=<DNSRecord &le; 1.5<br/>entropy = 0.337<br/>samples = 32<br/>value = [2, 30]<br/>class = Not phish>, fillcolor="#399de5ee"] ;
129 -> 130 ;
131 [label=<entropy = 0.0<br/>samples = 16<br/>value = [0, 16]<br/>class = Not phish>, fillcolor="#399de5ff"] ;
130 -> 131 ;
132 [label=<Page_Rank &le; 1.5<br/>entropy = 0.544<br/>samples = 16<br/>value = [2, 14]<br/>class = Not phish>, fillcolor="#399de5db"] ;
130 -> 132 ;
133 [label=<entropy = 0.0<br/>samples = 6<br/>value = [0, 6]<br/>class = Not phish>, fillcolor="#399de5ff"] ;
132 -> 133 ;
134 [label=<Request_URL &le; 0.5<br/>entropy = 0.722<br/>samples = 10<br/>value = [2, 8]<br/>class = Not phish>, fillcolor="#399de5bf"] ;
132 -> 134 ;
135 [label=<entropy = 0.0<br/>samples = 1<br/>value = [1, 0]<br/>class = Phish>, fillcolor="#e58139ff"] ;
134 -> 135 ;
136 [label=<Google_Index &le; 0.5<br/>entropy = 0.503<br/>samples = 9<br/>value = [1, 8]<br/>class = Not phish>, fillcolor="#399de5df"] ;
134 -> 136 ;
137 [label=<Request_URL &le; 1.5<br/>entropy = 0.918<br/>samples = 3<br/>value = [1, 2]<br/>class = Not phish>, fillcolor="#399de57f"] ;
136 -> 137 ;
138 [label=<entropy = 0.0<br/>samples = 2<br/>value = [0, 2]<br/>class = Not phish>, fillcolor="#399de5ff"] ;
137 -> 138 ;
139 [label=<entropy = 0.0<br/>samples = 1<br/>value = [1, 0]<br/>class = Phish>, fillcolor="#e58139ff"] ;
137 -> 139 ;
140 [label=<entropy = 0.0<br/>samples = 6<br/>value = [0, 6]<br/>class = Not phish>, fillcolor="#399de5ff"] ;
136 -> 140 ;
141 [label=<entropy = 0.0<br/>samples = 22<br/>value = [0, 22]<br/>class = Not phish>, fillcolor="#399de5ff"] ;
129 -> 141 ;
142 [label=<DNSRecord &le; 0.5<br/>entropy = 0.028<br/>samples = 360<br/>value = [1, 359]<br/>class = Not phish>, fillcolor="#399de5fe"] ;
112 -> 142 ;
143 [label=<Domain_registeration_length &le; 0.5<br/>entropy = 0.154<br/>samples = 45<br/>value = [1, 44]<br/>class = Not phish>, fillcolor="#399de5f9"] ;
142 -> 143 ;
144 [label=<Page_Rank &le; 1.5<br/>entropy = 0.544<br/>samples = 8<br/>value = [1, 7]<br/>class = Not phish>, fillcolor="#399de5db"] ;
143 -> 144 ;
145 [label=<having_IP_Address &le; 0.5<br/>entropy = 0.918<br/>samples = 3<br/>value = [1, 2]<br/>class = Not phish>, fillcolor="#399de57f"] ;
144 -> 145 ;
146 [label=<entropy = 0.0<br/>samples = 1<br/>value = [0, 1]<br/>class = Not phish>, fillcolor="#399de5ff"] ;
145 -> 146 ;
147 [label=<Links_in_tags &le; 2.5<br/>entropy = 1.0<br/>samples = 2<br/>value = [1, 1]<br/>class = Phish>, fillcolor="#e5813900"] ;
145 -> 147 ;
148 [label=<entropy = 0.0<br/>samples = 1<br/>value = [1, 0]<br/>class = Phish>, fillcolor="#e58139ff"] ;
147 -> 148 ;
149 [label=<entropy = 0.0<br/>samples = 1<br/>value = [0, 1]<br/>class = Not phish>, fillcolor="#399de5ff"] ;
147 -> 149 ;
150 [label=<entropy = 0.0<br/>samples = 5<br/>value = [0, 5]<br/>class = Not phish>, fillcolor="#399de5ff"] ;
144 -> 150 ;
151 [label=<entropy = 0.0<br/>samples = 37<br/>value = [0, 37]<br/>class = Not phish>, fillcolor="#399de5ff"] ;
143 -> 151 ;
152 [label=<entropy = 0.0<br/>samples = 315<br/>value = [0, 315]<br/>class = Not phish>, fillcolor="#399de5ff"] ;
142 -> 152 ;
153 [label=<URL_Length &le; 2.0<br/>entropy = 0.391<br/>samples = 65<br/>value = [5, 60]<br/>class = Not phish>, fillcolor="#399de5ea"] ;
111 -> 153 ;
154 [label=<having_IP_Address &le; 0.5<br/>entropy = 0.787<br/>samples = 17<br/>value = [4, 13]<br/>class = Not phish>, fillcolor="#399de5b1"] ;
153 -> 154 ;
155 [label=<Page_Rank &le; 0.5<br/>entropy = 0.391<br/>samples = 13<br/>value = [1, 12]<br/>class = Not phish>, fillcolor="#399de5ea"] ;
154 -> 155 ;
156 [label=<having_At_Symbol &le; 1.5<br/>entropy = 1.0<br/>samples = 2<br/>value = [1, 1]<br/>class = Phish>, fillcolor="#e5813900"] ;
155 -> 156 ;
157 [label=<entropy = 0.0<br/>samples = 1<br/>value = [0, 1]<br/>class = Not phish>, fillcolor="#399de5ff"] ;
156 -> 157 ;
158 [label=<entropy = 0.0<br/>samples = 1<br/>value = [1, 0]<br/>class = Phish>, fillcolor="#e58139ff"] ;
156 -> 158 ;
159 [label=<entropy = 0.0<br/>samples = 11<br/>value = [0, 11]<br/>class = Not phish>, fillcolor="#399de5ff"] ;
155 -> 159 ;
160 [label=<SFH &le; 2.5<br/>entropy = 0.811<br/>samples = 4<br/>value = [3, 1]<br/>class = Phish>, fillcolor="#e58139aa"] ;
154 -> 160 ;
161 [label=<entropy = 0.0<br/>samples = 3<br/>value = [3, 0]<br/>class = Phish>, fillcolor="#e58139ff"] ;
160 -> 161 ;
162 [label=<entropy = 0.0<br/>samples = 1<br/>value = [0, 1]<br/>class = Not phish>, fillcolor="#399de5ff"] ;
160 -> 162 ;
163 [label=<age_of_domain &le; 0.5<br/>entropy = 0.146<br/>samples = 48<br/>value = [1, 47]<br/>class = Not phish>, fillcolor="#399de5fa"] ;
153 -> 163 ;
164 [label=<web_traffic &le; 1.5<br/>entropy = 0.918<br/>samples = 3<br/>value = [1, 2]<br/>class = Not phish>, fillcolor="#399de57f"] ;
163 -> 164 ;
165 [label=<entropy = 0.0<br/>samples = 2<br/>value = [0, 2]<br/>class = Not phish>, fillcolor="#399de5ff"] ;
164 -> 165 ;
166 [label=<entropy = 0.0<br/>samples = 1<br/>value = [1, 0]<br/>class = Phish>, fillcolor="#e58139ff"] ;
164 -> 166 ;
167 [label=<entropy = 0.0<br/>samples = 45<br/>value = [0, 45]<br/>class = Not phish>, fillcolor="#399de5ff"] ;
163 -> 167 ;
168 [label=<URL_of_Anchor &le; 2.5<br/>entropy = 0.907<br/>samples = 1611<br/>value = [519, 1092]<br/>class = Not phish>, fillcolor="#399de586"] ;
2 -> 168 ;
169 [label=<Links_pointing_to_page &le; 0.5<br/>entropy = 0.147<br/>samples = 286<br/>value = [280, 6]<br/>class = Phish>, fillcolor="#e58139fa"] ;
168 -> 169 ;
170 [label=<Links_in_tags &le; 2.5<br/>entropy = 0.89<br/>samples = 13<br/>value = [9, 4]<br/>class = Phish>, fillcolor="#e581398e"] ;
169 -> 170 ;
171 [label=<entropy = 0.0<br/>samples = 6<br/>value = [6, 0]<br/>class = Phish>, fillcolor="#e58139ff"] ;
170 -> 171 ;
172 [label=<URL_Length &le; 2.0<br/>entropy = 0.985<br/>samples = 7<br/>value = [3, 4]<br/>class = Not phish>, fillcolor="#399de540"] ;
170 -> 172 ;
173 [label=<entropy = 0.0<br/>samples = 3<br/>value = [3, 0]<br/>class = Phish>, fillcolor="#e58139ff"] ;
172 -> 173 ;
174 [label=<entropy = 0.0<br/>samples = 4<br/>value = [0, 4]<br/>class = Not phish>, fillcolor="#399de5ff"] ;
172 -> 174 ;
175 [label=<Iframe &le; 0.5<br/>entropy = 0.062<br/>samples = 273<br/>value = [271, 2]<br/>class = Phish>, fillcolor="#e58139fd"] ;
169 -> 175 ;
176 [label=<Request_URL &le; 1.5<br/>entropy = 0.31<br/>samples = 36<br/>value = [34, 2]<br/>class = Phish>, fillcolor="#e58139f0"] ;
175 -> 176 ;
177 [label=<entropy = 0.0<br/>samples = 29<br/>value = [29, 0]<br/>class = Phish>, fillcolor="#e58139ff"] ;
176 -> 177 ;
178 [label=<RightClick &le; 0.5<br/>entropy = 0.863<br/>samples = 7<br/>value = [5, 2]<br/>class = Phish>, fillcolor="#e5813999"] ;
176 -> 178 ;
179 [label=<entropy = 0.0<br/>samples = 5<br/>value = [5, 0]<br/>class = Phish>, fillcolor="#e58139ff"] ;
178 -> 179 ;
180 [label=<entropy = 0.0<br/>samples = 2<br/>value = [0, 2]<br/>class = Not phish>, fillcolor="#399de5ff"] ;
178 -> 180 ;
181 [label=<entropy = 0.0<br/>samples = 237<br/>value = [237, 0]<br/>class = Phish>, fillcolor="#e58139ff"] ;
175 -> 181 ;
182 [label=<SFH &le; 2.5<br/>entropy = 0.681<br/>samples = 1325<br/>value = [239, 1086]<br/>class = Not phish>, fillcolor="#399de5c7"] ;
168 -> 182 ;
183 [label=<Domain_registeration_length &le; 0.5<br/>entropy = 0.762<br/>samples = 1050<br/>value = [232, 818]<br/>class = Not phish>, fillcolor="#399de5b7"] ;
182 -> 183 ;
184 [label=<Abnormal_URL &le; 0.5<br/>entropy = 0.957<br/>samples = 309<br/>value = [117, 192]<br/>class = Not phish>, fillcolor="#399de564"] ;
183 -> 184 ;
185 [label=<HTTPS_token &le; 1.5<br/>entropy = 0.362<br/>samples = 29<br/>value = [2, 27]<br/>class = Not phish>, fillcolor="#399de5ec"] ;
184 -> 185 ;
186 [label=<entropy = 0.0<br/>samples = 26<br/>value = [0, 26]<br/>class = Not phish>, fillcolor="#399de5ff"] ;
185 -> 186 ;
187 [label=<port &le; 0.5<br/>entropy = 0.918<br/>samples = 3<br/>value = [2, 1]<br/>class = Phish>, fillcolor="#e581397f"] ;
185 -> 187 ;
188 [label=<entropy = 0.0<br/>samples = 2<br/>value = [2, 0]<br/>class = Phish>, fillcolor="#e58139ff"] ;
187 -> 188 ;
189 [label=<entropy = 0.0<br/>samples = 1<br/>value = [0, 1]<br/>class = Not phish>, fillcolor="#399de5ff"] ;
187 -> 189 ;
190 [label=<SFH &le; 1.5<br/>entropy = 0.977<br/>samples = 280<br/>value = [115, 165]<br/>class = Not phish>, fillcolor="#399de54d"] ;
184 -> 190 ;
191 [label=<SFH &le; 0.5<br/>entropy = 0.734<br/>samples = 68<br/>value = [14, 54]<br/>class = Not phish>, fillcolor="#399de5bd"] ;
190 -> 191 ;
192 [label=<Links_in_tags &le; 0.5<br/>entropy = 0.958<br/>samples = 29<br/>value = [11, 18]<br/>class = Not phish>, fillcolor="#399de563"] ;
191 -> 192 ;
193 [label=<entropy = 0.0<br/>samples = 2<br/>value = [2, 0]<br/>class = Phish>, fillcolor="#e58139ff"] ;
192 -> 193 ;
194 [label=<Page_Rank &le; 1.5<br/>entropy = 0.918<br/>samples = 27<br/>value = [9, 18]<br/>class = Not phish>, fillcolor="#399de57f"] ;
192 -> 194 ;
195 [label=<entropy = 0.0<br/>samples = 6<br/>value = [0, 6]<br/>class = Not phish>, fillcolor="#399de5ff"] ;
194 -> 195 ;
196 [label=<age_of_domain &le; 1.5<br/>entropy = 0.985<br/>samples = 21<br/>value = [9, 12]<br/>class = Not phish>, fillcolor="#399de540"] ;
194 -> 196 ;
197 [label=<double_slash_redirecting &le; 1.0<br/>entropy = 0.961<br/>samples = 13<br/>value = [8, 5]<br/>class = Phish>, fillcolor="#e5813960"] ;
196 -> 197 ;
198 [label=<entropy = 0.0<br/>samples = 2<br/>value = [0, 2]<br/>class = Not phish>, fillcolor="#399de5ff"] ;
197 -> 198 ;
199 [label=<web_traffic &le; 1.5<br/>entropy = 0.845<br/>samples = 11<br/>value = [8, 3]<br/>class = Phish>, fillcolor="#e581399f"] ;
197 -> 199 ;
200 [label=<entropy = 0.0<br/>samples = 6<br/>value = [6, 0]<br/>class = Phish>, fillcolor="#e58139ff"] ;
199 -> 200 ;
201 [label=<having_IP_Address &le; 0.5<br/>entropy = 0.971<br/>samples = 5<br/>value = [2, 3]<br/>class = Not phish>, fillcolor="#399de555"] ;
199 -> 201 ;
202 [label=<entropy = 0.0<br/>samples = 2<br/>value = [0, 2]<br/>class = Not phish>, fillcolor="#399de5ff"] ;
201 -> 202 ;
203 [label=<URL_Length &le; 1.5<br/>entropy = 0.918<br/>samples = 3<br/>value = [2, 1]<br/>class = Phish>, fillcolor="#e581397f"] ;
201 -> 203 ;
204 [label=<entropy = 0.0<br/>samples = 1<br/>value = [0, 1]<br/>class = Not phish>, fillcolor="#399de5ff"] ;
203 -> 204 ;
205 [label=<entropy = 0.0<br/>samples = 2<br/>value = [2, 0]<br/>class = Phish>, fillcolor="#e58139ff"] ;
203 -> 205 ;
206 [label=<Request_URL &le; 0.5<br/>entropy = 0.544<br/>samples = 8<br/>value = [1, 7]<br/>class = Not phish>, fillcolor="#399de5db"] ;
196 -> 206 ;
207 [label=<entropy = 0.0<br/>samples = 1<br/>value = [1, 0]<br/>class = Phish>, fillcolor="#e58139ff"] ;
206 -> 207 ;
208 [label=<entropy = 0.0<br/>samples = 7<br/>value = [0, 7]<br/>class = Not phish>, fillcolor="#399de5ff"] ;
206 -> 208 ;
209 [label=<Redirect &le; 0.5<br/>entropy = 0.391<br/>samples = 39<br/>value = [3, 36]<br/>class = Not phish>, fillcolor="#399de5ea"] ;
191 -> 209 ;
210 [label=<Page_Rank &le; 0.5<br/>entropy = 0.183<br/>samples = 36<br/>value = [1, 35]<br/>class = Not phish>, fillcolor="#399de5f8"] ;
209 -> 210 ;
211 [label=<web_traffic &le; 1.5<br/>entropy = 0.918<br/>samples = 3<br/>value = [1, 2]<br/>class = Not phish>, fillcolor="#399de57f"] ;
210 -> 211 ;
212 [label=<entropy = 0.0<br/>samples = 2<br/>value = [0, 2]<br/>class = Not phish>, fillcolor="#399de5ff"] ;
211 -> 212 ;
213 [label=<entropy = 0.0<br/>samples = 1<br/>value = [1, 0]<br/>class = Phish>, fillcolor="#e58139ff"] ;
211 -> 213 ;
214 [label=<entropy = 0.0<br/>samples = 33<br/>value = [0, 33]<br/>class = Not phish>, fillcolor="#399de5ff"] ;
210 -> 214 ;
215 [label=<web_traffic &le; 1.5<br/>entropy = 0.918<br/>samples = 3<br/>value = [2, 1]<br/>class = Phish>, fillcolor="#e581397f"] ;
209 -> 215 ;
216 [label=<entropy = 0.0<br/>samples = 1<br/>value = [0, 1]<br/>class = Not phish>, fillcolor="#399de5ff"] ;
215 -> 216 ;
217 [label=<entropy = 0.0<br/>samples = 2<br/>value = [2, 0]<br/>class = Phish>, fillcolor="#e58139ff"] ;
215 -> 217 ;
218 [label=<having_IP_Address &le; 0.5<br/>entropy = 0.998<br/>samples = 212<br/>value = [101, 111]<br/>class = Not phish>, fillcolor="#399de517"] ;
190 -> 218 ;
219 [label=<web_traffic &le; 1.5<br/>entropy = 0.927<br/>samples = 73<br/>value = [48, 25]<br/>class = Phish>, fillcolor="#e581397a"] ;
218 -> 219 ;
220 [label=<DNSRecord &le; 1.5<br/>entropy = 0.722<br/>samples = 45<br/>value = [36, 9]<br/>class = Phish>, fillcolor="#e58139bf"] ;
219 -> 220 ;
221 [label=<entropy = 0.0<br/>samples = 3<br/>value = [0, 3]<br/>class = Not phish>, fillcolor="#399de5ff"] ;
220 -> 221 ;
222 [label=<Request_URL &le; 1.5<br/>entropy = 0.592<br/>samples = 42<br/>value = [36, 6]<br/>class = Phish>, fillcolor="#e58139d4"] ;
220 -> 222 ;
223 [label=<Submitting_to_email &le; 1.5<br/>entropy = 0.709<br/>samples = 31<br/>value = [25, 6]<br/>class = Phish>, fillcolor="#e58139c2"] ;
222 -> 223 ;
224 [label=<entropy = 0.0<br/>samples = 7<br/>value = [7, 0]<br/>class = Phish>, fillcolor="#e58139ff"] ;
223 -> 224 ;
225 [label=<on_mouseover &le; 0.5<br/>entropy = 0.811<br/>samples = 24<br/>value = [18, 6]<br/>class = Phish>, fillcolor="#e58139aa"] ;
223 -> 225 ;
226 [label=<entropy = 0.0<br/>samples = 2<br/>value = [0, 2]<br/>class = Not phish>, fillcolor="#399de5ff"] ;
225 -> 226 ;
227 [label=<Request_URL &le; 0.5<br/>entropy = 0.684<br/>samples = 22<br/>value = [18, 4]<br/>class = Phish>, fillcolor="#e58139c6"] ;
225 -> 227 ;
228 [label=<entropy = 0.0<br/>samples = 1<br/>value = [0, 1]<br/>class = Not phish>, fillcolor="#399de5ff"] ;
227 -> 228 ;
229 [label=<Links_pointing_to_page &le; 1.5<br/>entropy = 0.592<br/>samples = 21<br/>value = [18, 3]<br/>class = Phish>, fillcolor="#e58139d4"] ;
227 -> 229 ;
230 [label=<entropy = 0.0<br/>samples = 7<br/>value = [7, 0]<br/>class = Phish>, fillcolor="#e58139ff"] ;
229 -> 230 ;
231 [label=<Page_Rank &le; 1.5<br/>entropy = 0.75<br/>samples = 14<br/>value = [11, 3]<br/>class = Phish>, fillcolor="#e58139b9"] ;
229 -> 231 ;
232 [label=<entropy = 0.0<br/>samples = 4<br/>value = [4, 0]<br/>class = Phish>, fillcolor="#e58139ff"] ;
231 -> 232 ;
233 [label=<HTTPS_token &le; 1.0<br/>entropy = 0.881<br/>samples = 10<br/>value = [7, 3]<br/>class = Phish>, fillcolor="#e5813992"] ;
231 -> 233 ;
234 [label=<entropy = 0.0<br/>samples = 3<br/>value = [3, 0]<br/>class = Phish>, fillcolor="#e58139ff"] ;
233 -> 234 ;
235 [label=<Google_Index &le; 1.0<br/>entropy = 0.985<br/>samples = 7<br/>value = [4, 3]<br/>class = Phish>, fillcolor="#e5813940"] ;
233 -> 235 ;
236 [label=<entropy = 0.0<br/>samples = 1<br/>value = [1, 0]<br/>class = Phish>, fillcolor="#e58139ff"] ;
235 -> 236 ;
237 [label=<age_of_domain &le; 0.5<br/>entropy = 1.0<br/>samples = 6<br/>value = [3, 3]<br/>class = Phish>, fillcolor="#e5813900"] ;
235 -> 237 ;
238 [label=<entropy = 0.0<br/>samples = 1<br/>value = [1, 0]<br/>class = Phish>, fillcolor="#e58139ff"] ;
237 -> 238 ;
239 [label=<web_traffic &le; 0.5<br/>entropy = 0.971<br/>samples = 5<br/>value = [2, 3]<br/>class = Not phish>, fillcolor="#399de555"] ;
237 -> 239 ;
240 [label=<Links_in_tags &le; 1.0<br/>entropy = 0.918<br/>samples = 3<br/>value = [2, 1]<br/>class = Phish>, fillcolor="#e581397f"] ;
239 -> 240 ;
241 [label=<age_of_domain &le; 1.5<br/>entropy = 1.0<br/>samples = 2<br/>value = [1, 1]<br/>class = Phish>, fillcolor="#e5813900"] ;
240 -> 241 ;
242 [label=<entropy = 0.0<br/>samples = 1<br/>value = [0, 1]<br/>class = Not phish>, fillcolor="#399de5ff"] ;
241 -> 242 ;
243 [label=<entropy = 0.0<br/>samples = 1<br/>value = [1, 0]<br/>class = Phish>, fillcolor="#e58139ff"] ;
241 -> 243 ;
244 [label=<entropy = 0.0<br/>samples = 1<br/>value = [1, 0]<br/>class = Phish>, fillcolor="#e58139ff"] ;
240 -> 244 ;
245 [label=<entropy = 0.0<br/>samples = 2<br/>value = [0, 2]<br/>class = Not phish>, fillcolor="#399de5ff"] ;
239 -> 245 ;
246 [label=<entropy = 0.0<br/>samples = 11<br/>value = [11, 0]<br/>class = Phish>, fillcolor="#e58139ff"] ;
222 -> 246 ;
247 [label=<Google_Index &le; 1.5<br/>entropy = 0.985<br/>samples = 28<br/>value = [12, 16]<br/>class = Not phish>, fillcolor="#399de540"] ;
219 -> 247 ;
248 [label=<DNSRecord &le; 1.5<br/>entropy = 0.592<br/>samples = 7<br/>value = [6, 1]<br/>class = Phish>, fillcolor="#e58139d4"] ;
247 -> 248 ;
249 [label=<entropy = 0.0<br/>samples = 1<br/>value = [0, 1]<br/>class = Not phish>, fillcolor="#399de5ff"] ;
248 -> 249 ;
250 [label=<entropy = 0.0<br/>samples = 6<br/>value = [6, 0]<br/>class = Phish>, fillcolor="#e58139ff"] ;
248 -> 250 ;
251 [label=<Links_pointing_to_page &le; 1.5<br/>entropy = 0.863<br/>samples = 21<br/>value = [6, 15]<br/>class = Not phish>, fillcolor="#399de599"] ;
247 -> 251 ;
252 [label=<entropy = 0.0<br/>samples = 2<br/>value = [2, 0]<br/>class = Phish>, fillcolor="#e58139ff"] ;
251 -> 252 ;
253 [label=<Statistical_report &le; 0.5<br/>entropy = 0.742<br/>samples = 19<br/>value = [4, 15]<br/>class = Not phish>, fillcolor="#399de5bb"] ;
251 -> 253 ;
254 [label=<entropy = 0.0<br/>samples = 1<br/>value = [1, 0]<br/>class = Phish>, fillcolor="#e58139ff"] ;
253 -> 254 ;
255 [label=<Links_in_tags &le; 1.5<br/>entropy = 0.65<br/>samples = 18<br/>value = [3, 15]<br/>class = Not phish>, fillcolor="#399de5cc"] ;
253 -> 255 ;
256 [label=<entropy = 0.0<br/>samples = 5<br/>value = [0, 5]<br/>class = Not phish>, fillcolor="#399de5ff"] ;
255 -> 256 ;
257 [label=<DNSRecord &le; 1.0<br/>entropy = 0.779<br/>samples = 13<br/>value = [3, 10]<br/>class = Not phish>, fillcolor="#399de5b3"] ;
255 -> 257 ;
258 [label=<entropy = 0.0<br/>samples = 1<br/>value = [1, 0]<br/>class = Phish>, fillcolor="#e58139ff"] ;
257 -> 258 ;
259 [label=<Request_URL &le; 1.5<br/>entropy = 0.65<br/>samples = 12<br/>value = [2, 10]<br/>class = Not phish>, fillcolor="#399de5cc"] ;
257 -> 259 ;
260 [label=<Links_in_tags &le; 2.5<br/>entropy = 0.811<br/>samples = 8<br/>value = [2, 6]<br/>class = Not phish>, fillcolor="#399de5aa"] ;
259 -> 260 ;
261 [label=<web_traffic &le; 2.5<br/>entropy = 0.65<br/>samples = 6<br/>value = [1, 5]<br/>class = Not phish>, fillcolor="#399de5cc"] ;
260 -> 261 ;
262 [label=<entropy = 0.0<br/>samples = 3<br/>value = [0, 3]<br/>class = Not phish>, fillcolor="#399de5ff"] ;
261 -> 262 ;
263 [label=<age_of_domain &le; 1.5<br/>entropy = 0.918<br/>samples = 3<br/>value = [1, 2]<br/>class = Not phish>, fillcolor="#399de57f"] ;
261 -> 263 ;
264 [label=<entropy = 1.0<br/>samples = 2<br/>value = [1, 1]<br/>class = Phish>, fillcolor="#e5813900"] ;
263 -> 264 ;
265 [label=<entropy = 0.0<br/>samples = 1<br/>value = [0, 1]<br/>class = Not phish>, fillcolor="#399de5ff"] ;
263 -> 265 ;
266 [label=<double_slash_redirecting &le; 1.0<br/>entropy = 1.0<br/>samples = 2<br/>value = [1, 1]<br/>class = Phish>, fillcolor="#e5813900"] ;
260 -> 266 ;
267 [label=<entropy = 0.0<br/>samples = 1<br/>value = [1, 0]<br/>class = Phish>, fillcolor="#e58139ff"] ;
266 -> 267 ;
268 [label=<entropy = 0.0<br/>samples = 1<br/>value = [0, 1]<br/>class = Not phish>, fillcolor="#399de5ff"] ;
266 -> 268 ;
269 [label=<entropy = 0.0<br/>samples = 4<br/>value = [0, 4]<br/>class = Not phish>, fillcolor="#399de5ff"] ;
259 -> 269 ;
270 [label=<Page_Rank &le; 1.5<br/>entropy = 0.959<br/>samples = 139<br/>value = [53, 86]<br/>class = Not phish>, fillcolor="#399de562"] ;
218 -> 270 ;
271 [label=<Page_Rank &le; 0.5<br/>entropy = 0.258<br/>samples = 46<br/>value = [2, 44]<br/>class = Not phish>, fillcolor="#399de5f3"] ;
270 -> 271 ;
272 [label=<double_slash_redirecting &le; 1.0<br/>entropy = 0.684<br/>samples = 11<br/>value = [2, 9]<br/>class = Not phish>, fillcolor="#399de5c6"] ;
271 -> 272 ;
273 [label=<entropy = 0.0<br/>samples = 1<br/>value = [1, 0]<br/>class = Phish>, fillcolor="#e58139ff"] ;
272 -> 273 ;
274 [label=<URL_Length &le; 0.5<br/>entropy = 0.469<br/>samples = 10<br/>value = [1, 9]<br/>class = Not phish>, fillcolor="#399de5e3"] ;
272 -> 274 ;
275 [label=<Request_URL &le; 1.5<br/>entropy = 0.918<br/>samples = 3<br/>value = [1, 2]<br/>class = Not phish>, fillcolor="#399de57f"] ;
274 -> 275 ;
276 [label=<entropy = 0.0<br/>samples = 1<br/>value = [1, 0]<br/>class = Phish>, fillcolor="#e58139ff"] ;
275 -> 276 ;
277 [label=<entropy = 0.0<br/>samples = 2<br/>value = [0, 2]<br/>class = Not phish>, fillcolor="#399de5ff"] ;
275 -> 277 ;
278 [label=<entropy = 0.0<br/>samples = 7<br/>value = [0, 7]<br/>class = Not phish>, fillcolor="#399de5ff"] ;
274 -> 278 ;
279 [label=<entropy = 0.0<br/>samples = 35<br/>value = [0, 35]<br/>class = Not phish>, fillcolor="#399de5ff"] ;
271 -> 279 ;
280 [label=<Google_Index &le; 1.5<br/>entropy = 0.993<br/>samples = 93<br/>value = [51, 42]<br/>class = Phish>, fillcolor="#e581392d"] ;
270 -> 280 ;
281 [label=<Google_Index &le; 0.5<br/>entropy = 0.764<br/>samples = 18<br/>value = [14, 4]<br/>class = Phish>, fillcolor="#e58139b6"] ;
280 -> 281 ;
282 [label=<Links_in_tags &le; 2.5<br/>entropy = 1.0<br/>samples = 8<br/>value = [4, 4]<br/>class = Phish>, fillcolor="#e5813900"] ;
281 -> 282 ;
283 [label=<Favicon &le; 0.5<br/>entropy = 0.722<br/>samples = 5<br/>value = [4, 1]<br/>class = Phish>, fillcolor="#e58139bf"] ;
282 -> 283 ;
284 [label=<entropy = 0.0<br/>samples = 1<br/>value = [0, 1]<br/>class = Not phish>, fillcolor="#399de5ff"] ;
283 -> 284 ;
285 [label=<entropy = 0.0<br/>samples = 4<br/>value = [4, 0]<br/>class = Phish>, fillcolor="#e58139ff"] ;
283 -> 285 ;
286 [label=<entropy = 0.0<br/>samples = 3<br/>value = [0, 3]<br/>class = Not phish>, fillcolor="#399de5ff"] ;
282 -> 286 ;
287 [label=<entropy = 0.0<br/>samples = 10<br/>value = [10, 0]<br/>class = Phish>, fillcolor="#e58139ff"] ;
281 -> 287 ;
288 [label=<age_of_domain &le; 1.5<br/>entropy = 1.0<br/>samples = 75<br/>value = [37, 38]<br/>class = Not phish>, fillcolor="#399de507"] ;
280 -> 288 ;
289 [label=<Links_in_tags &le; 2.5<br/>entropy = 0.975<br/>samples = 54<br/>value = [22, 32]<br/>class = Not phish>, fillcolor="#399de550"] ;
288 -> 289 ;
290 [label=<Iframe &le; 0.5<br/>entropy = 0.997<br/>samples = 45<br/>value = [21, 24]<br/>class = Not phish>, fillcolor="#399de520"] ;
289 -> 290 ;
291 [label=<entropy = 0.0<br/>samples = 3<br/>value = [3, 0]<br/>class = Phish>, fillcolor="#e58139ff"] ;
290 -> 291 ;
292 [label=<Favicon &le; 0.5<br/>entropy = 0.985<br/>samples = 42<br/>value = [18, 24]<br/>class = Not phish>, fillcolor="#399de540"] ;
290 -> 292 ;
293 [label=<entropy = 0.0<br/>samples = 3<br/>value = [0, 3]<br/>class = Not phish>, fillcolor="#399de5ff"] ;
292 -> 293 ;
294 [label=<Request_URL &le; 0.5<br/>entropy = 0.996<br/>samples = 39<br/>value = [18, 21]<br/>class = Not phish>, fillcolor="#399de524"] ;
292 -> 294 ;
295 [label=<web_traffic &le; 2.0<br/>entropy = 0.722<br/>samples = 5<br/>value = [4, 1]<br/>class = Phish>, fillcolor="#e58139bf"] ;
294 -> 295 ;
296 [label=<entropy = 0.0<br/>samples = 4<br/>value = [4, 0]<br/>class = Phish>, fillcolor="#e58139ff"] ;
295 -> 296 ;
297 [label=<entropy = 0.0<br/>samples = 1<br/>value = [0, 1]<br/>class = Not phish>, fillcolor="#399de5ff"] ;
295 -> 297 ;
298 [label=<Statistical_report &le; 0.5<br/>entropy = 0.977<br/>samples = 34<br/>value = [14, 20]<br/>class = Not phish>, fillcolor="#399de54d"] ;
294 -> 298 ;
299 [label=<entropy = 0.0<br/>samples = 2<br/>value = [0, 2]<br/>class = Not phish>, fillcolor="#399de5ff"] ;
298 -> 299 ;
300 [label=<DNSRecord &le; 0.5<br/>entropy = 0.989<br/>samples = 32<br/>value = [14, 18]<br/>class = Not phish>, fillcolor="#399de539"] ;
298 -> 300 ;
301 [label=<entropy = 0.0<br/>samples = 2<br/>value = [0, 2]<br/>class = Not phish>, fillcolor="#399de5ff"] ;
300 -> 301 ;
302 [label=<DNSRecord &le; 1.5<br/>entropy = 0.997<br/>samples = 30<br/>value = [14, 16]<br/>class = Not phish>, fillcolor="#399de520"] ;
300 -> 302 ;
303 [label=<double_slash_redirecting &le; 1.0<br/>entropy = 0.985<br/>samples = 14<br/>value = [8, 6]<br/>class = Phish>, fillcolor="#e5813940"] ;
302 -> 303 ;
304 [label=<entropy = 0.0<br/>samples = 2<br/>value = [2, 0]<br/>class = Phish>, fillcolor="#e58139ff"] ;
303 -> 304 ;
305 [label=<Request_URL &le; 1.5<br/>entropy = 1.0<br/>samples = 12<br/>value = [6, 6]<br/>class = Phish>, fillcolor="#e5813900"] ;
303 -> 305 ;
306 [label=<age_of_domain &le; 0.5<br/>entropy = 0.918<br/>samples = 9<br/>value = [6, 3]<br/>class = Phish>, fillcolor="#e581397f"] ;
305 -> 306 ;
307 [label=<entropy = 0.0<br/>samples = 2<br/>value = [2, 0]<br/>class = Phish>, fillcolor="#e58139ff"] ;
306 -> 307 ;
308 [label=<URL_Length &le; 1.5<br/>entropy = 0.985<br/>samples = 7<br/>value = [4, 3]<br/>class = Phish>, fillcolor="#e5813940"] ;
306 -> 308 ;
309 [label=<entropy = 0.0<br/>samples = 1<br/>value = [1, 0]<br/>class = Phish>, fillcolor="#e58139ff"] ;
308 -> 309 ;
310 [label=<web_traffic &le; 2.0<br/>entropy = 1.0<br/>samples = 6<br/>value = [3, 3]<br/>class = Phish>, fillcolor="#e5813900"] ;
308 -> 310 ;
311 [label=<Submitting_to_email &le; 1.0<br/>entropy = 0.971<br/>samples = 5<br/>value = [2, 3]<br/>class = Not phish>, fillcolor="#399de555"] ;
310 -> 311 ;
312 [label=<entropy = 0.0<br/>samples = 1<br/>value = [0, 1]<br/>class = Not phish>, fillcolor="#399de5ff"] ;
311 -> 312 ;
313 [label=<Links_in_tags &le; 0.5<br/>entropy = 1.0<br/>samples = 4<br/>value = [2, 2]<br/>class = Phish>, fillcolor="#e5813900"] ;
311 -> 313 ;
314 [label=<entropy = 0.0<br/>samples = 1<br/>value = [0, 1]<br/>class = Not phish>, fillcolor="#399de5ff"] ;
313 -> 314 ;
315 [label=<web_traffic &le; 0.5<br/>entropy = 0.918<br/>samples = 3<br/>value = [2, 1]<br/>class = Phish>, fillcolor="#e581397f"] ;
313 -> 315 ;
316 [label=<Links_in_tags &le; 1.5<br/>entropy = 1.0<br/>samples = 2<br/>value = [1, 1]<br/>class = Phish>, fillcolor="#e5813900"] ;
315 -> 316 ;
317 [label=<entropy = 0.0<br/>samples = 1<br/>value = [0, 1]<br/>class = Not phish>, fillcolor="#399de5ff"] ;
316 -> 317 ;
318 [label=<entropy = 0.0<br/>samples = 1<br/>value = [1, 0]<br/>class = Phish>, fillcolor="#e58139ff"] ;
316 -> 318 ;
319 [label=<entropy = 0.0<br/>samples = 1<br/>value = [1, 0]<br/>class = Phish>, fillcolor="#e58139ff"] ;
315 -> 319 ;
320 [label=<entropy = 0.0<br/>samples = 1<br/>value = [1, 0]<br/>class = Phish>, fillcolor="#e58139ff"] ;
310 -> 320 ;
321 [label=<entropy = 0.0<br/>samples = 3<br/>value = [0, 3]<br/>class = Not phish>, fillcolor="#399de5ff"] ;
305 -> 321 ;
322 [label=<having_At_Symbol &le; 1.0<br/>entropy = 0.954<br/>samples = 16<br/>value = [6, 10]<br/>class = Not phish>, fillcolor="#399de566"] ;
302 -> 322 ;
323 [label=<entropy = 0.0<br/>samples = 1<br/>value = [1, 0]<br/>class = Phish>, fillcolor="#e58139ff"] ;
322 -> 323 ;
324 [label=<web_traffic &le; 1.5<br/>entropy = 0.918<br/>samples = 15<br/>value = [5, 10]<br/>class = Not phish>, fillcolor="#399de57f"] ;
322 -> 324 ;
325 [label=<Links_in_tags &le; 0.5<br/>entropy = 0.994<br/>samples = 11<br/>value = [5, 6]<br/>class = Not phish>, fillcolor="#399de52a"] ;
324 -> 325 ;
326 [label=<entropy = 0.0<br/>samples = 1<br/>value = [0, 1]<br/>class = Not phish>, fillcolor="#399de5ff"] ;
325 -> 326 ;
327 [label=<Shortining_Service &le; 1.0<br/>entropy = 1.0<br/>samples = 10<br/>value = [5, 5]<br/>class = Phish>, fillcolor="#e5813900"] ;
325 -> 327 ;
328 [label=<entropy = 0.0<br/>samples = 1<br/>value = [0, 1]<br/>class = Not phish>, fillcolor="#399de5ff"] ;
327 -> 328 ;
329 [label=<double_slash_redirecting &le; 1.0<br/>entropy = 0.991<br/>samples = 9<br/>value = [5, 4]<br/>class = Phish>, fillcolor="#e5813933"] ;
327 -> 329 ;
330 [label=<entropy = 0.0<br/>samples = 1<br/>value = [0, 1]<br/>class = Not phish>, fillcolor="#399de5ff"] ;
329 -> 330 ;
331 [label=<Links_pointing_to_page &le; 1.5<br/>entropy = 0.954<br/>samples = 8<br/>value = [5, 3]<br/>class = Phish>, fillcolor="#e5813966"] ;
329 -> 331 ;
332 [label=<age_of_domain &le; 0.5<br/>entropy = 0.985<br/>samples = 7<br/>value = [4, 3]<br/>class = Phish>, fillcolor="#e5813940"] ;
331 -> 332 ;
333 [label=<entropy = 0.0<br/>samples = 1<br/>value = [0, 1]<br/>class = Not phish>, fillcolor="#399de5ff"] ;
332 -> 333 ;
334 [label=<Links_in_tags &le; 1.5<br/>entropy = 0.918<br/>samples = 6<br/>value = [4, 2]<br/>class = Phish>, fillcolor="#e581397f"] ;
332 -> 334 ;
335 [label=<entropy = 1.0<br/>samples = 2<br/>value = [1, 1]<br/>class = Phish>, fillcolor="#e5813900"] ;
334 -> 335 ;
336 [label=<URL_Length &le; 1.5<br/>entropy = 0.811<br/>samples = 4<br/>value = [3, 1]<br/>class = Phish>, fillcolor="#e58139aa"] ;
334 -> 336 ;
337 [label=<web_traffic &le; 0.5<br/>entropy = 1.0<br/>samples = 2<br/>value = [1, 1]<br/>class = Phish>, fillcolor="#e5813900"] ;
336 -> 337 ;
338 [label=<entropy = 0.0<br/>samples = 1<br/>value = [0, 1]<br/>class = Not phish>, fillcolor="#399de5ff"] ;
337 -> 338 ;
339 [label=<entropy = 0.0<br/>samples = 1<br/>value = [1, 0]<br/>class = Phish>, fillcolor="#e58139ff"] ;
337 -> 339 ;
340 [label=<entropy = 0.0<br/>samples = 2<br/>value = [2, 0]<br/>class = Phish>, fillcolor="#e58139ff"] ;
336 -> 340 ;
341 [label=<entropy = 0.0<br/>samples = 1<br/>value = [1, 0]<br/>class = Phish>, fillcolor="#e58139ff"] ;
331 -> 341 ;
342 [label=<entropy = 0.0<br/>samples = 4<br/>value = [0, 4]<br/>class = Not phish>, fillcolor="#399de5ff"] ;
324 -> 342 ;
343 [label=<Links_pointing_to_page &le; 1.5<br/>entropy = 0.503<br/>samples = 9<br/>value = [1, 8]<br/>class = Not phish>, fillcolor="#399de5df"] ;
289 -> 343 ;
344 [label=<entropy = 0.0<br/>samples = 6<br/>value = [0, 6]<br/>class = Not phish>, fillcolor="#399de5ff"] ;
343 -> 344 ;
345 [label=<Request_URL &le; 1.5<br/>entropy = 0.918<br/>samples = 3<br/>value = [1, 2]<br/>class = Not phish>, fillcolor="#399de57f"] ;
343 -> 345 ;
346 [label=<entropy = 0.0<br/>samples = 1<br/>value = [1, 0]<br/>class = Phish>, fillcolor="#e58139ff"] ;
345 -> 346 ;
347 [label=<entropy = 0.0<br/>samples = 2<br/>value = [0, 2]<br/>class = Not phish>, fillcolor="#399de5ff"] ;
345 -> 347 ;
348 [label=<Request_URL &le; 1.5<br/>entropy = 0.863<br/>samples = 21<br/>value = [15, 6]<br/>class = Phish>, fillcolor="#e5813999"] ;
288 -> 348 ;
349 [label=<Links_in_tags &le; 2.5<br/>entropy = 0.937<br/>samples = 17<br/>value = [11, 6]<br/>class = Phish>, fillcolor="#e5813974"] ;
348 -> 349 ;
350 [label=<HTTPS_token &le; 1.0<br/>entropy = 0.779<br/>samples = 13<br/>value = [10, 3]<br/>class = Phish>, fillcolor="#e58139b3"] ;
349 -> 350 ;
351 [label=<Redirect &le; 0.5<br/>entropy = 0.954<br/>samples = 8<br/>value = [5, 3]<br/>class = Phish>, fillcolor="#e5813966"] ;
350 -> 351 ;
352 [label=<Links_in_tags &le; 1.5<br/>entropy = 0.971<br/>samples = 5<br/>value = [2, 3]<br/>class = Not phish>, fillcolor="#399de555"] ;
351 -> 352 ;
353 [label=<entropy = 0.0<br/>samples = 2<br/>value = [0, 2]<br/>class = Not phish>, fillcolor="#399de5ff"] ;
352 -> 353 ;
354 [label=<DNSRecord &le; 1.0<br/>entropy = 0.918<br/>samples = 3<br/>value = [2, 1]<br/>class = Phish>, fillcolor="#e581397f"] ;
352 -> 354 ;
355 [label=<entropy = 0.0<br/>samples = 1<br/>value = [1, 0]<br/>class = Phish>, fillcolor="#e58139ff"] ;
354 -> 355 ;
356 [label=<on_mouseover &le; 0.5<br/>entropy = 1.0<br/>samples = 2<br/>value = [1, 1]<br/>class = Phish>, fillcolor="#e5813900"] ;
354 -> 356 ;
357 [label=<entropy = 0.0<br/>samples = 1<br/>value = [1, 0]<br/>class = Phish>, fillcolor="#e58139ff"] ;
356 -> 357 ;
358 [label=<entropy = 0.0<br/>samples = 1<br/>value = [0, 1]<br/>class = Not phish>, fillcolor="#399de5ff"] ;
356 -> 358 ;
359 [label=<entropy = 0.0<br/>samples = 3<br/>value = [3, 0]<br/>class = Phish>, fillcolor="#e58139ff"] ;
351 -> 359 ;
360 [label=<entropy = 0.0<br/>samples = 5<br/>value = [5, 0]<br/>class = Phish>, fillcolor="#e58139ff"] ;
350 -> 360 ;
361 [label=<Request_URL &le; 0.5<br/>entropy = 0.811<br/>samples = 4<br/>value = [1, 3]<br/>class = Not phish>, fillcolor="#399de5aa"] ;
349 -> 361 ;
362 [label=<entropy = 0.0<br/>samples = 1<br/>value = [1, 0]<br/>class = Phish>, fillcolor="#e58139ff"] ;
361 -> 362 ;
363 [label=<entropy = 0.0<br/>samples = 3<br/>value = [0, 3]<br/>class = Not phish>, fillcolor="#399de5ff"] ;
361 -> 363 ;
364 [label=<entropy = 0.0<br/>samples = 4<br/>value = [4, 0]<br/>class = Phish>, fillcolor="#e58139ff"] ;
348 -> 364 ;
365 [label=<web_traffic &le; 2.5<br/>entropy = 0.623<br/>samples = 741<br/>value = [115, 626]<br/>class = Not phish>, fillcolor="#399de5d0"] ;
183 -> 365 ;
366 [label=<Abnormal_URL &le; 0.5<br/>entropy = 0.381<br/>samples = 512<br/>value = [38, 474]<br/>class = Not phish>, fillcolor="#399de5eb"] ;
365 -> 366 ;
367 [label=<entropy = 0.0<br/>samples = 78<br/>value = [0, 78]<br/>class = Not phish>, fillcolor="#399de5ff"] ;
366 -> 367 ;
368 [label=<Favicon &le; 0.5<br/>entropy = 0.428<br/>samples = 434<br/>value = [38, 396]<br/>class = Not phish>, fillcolor="#399de5e7"] ;
366 -> 368 ;
369 [label=<Links_pointing_to_page &le; 0.5<br/>entropy = 0.079<br/>samples = 102<br/>value = [1, 101]<br/>class = Not phish>, fillcolor="#399de5fc"] ;
368 -> 369 ;
370 [label=<Request_URL &le; 1.5<br/>entropy = 0.544<br/>samples = 8<br/>value = [1, 7]<br/>class = Not phish>, fillcolor="#399de5db"] ;
369 -> 370 ;
371 [label=<entropy = 0.0<br/>samples = 1<br/>value = [1, 0]<br/>class = Phish>, fillcolor="#e58139ff"] ;
370 -> 371 ;
372 [label=<entropy = 0.0<br/>samples = 7<br/>value = [0, 7]<br/>class = Not phish>, fillcolor="#399de5ff"] ;
370 -> 372 ;
373 [label=<entropy = 0.0<br/>samples = 94<br/>value = [0, 94]<br/>class = Not phish>, fillcolor="#399de5ff"] ;
369 -> 373 ;
374 [label=<having_IP_Address &le; 0.5<br/>entropy = 0.504<br/>samples = 332<br/>value = [37, 295]<br/>class = Not phish>, fillcolor="#399de5df"] ;
368 -> 374 ;
375 [label=<Links_pointing_to_page &le; 0.5<br/>entropy = 0.879<br/>samples = 57<br/>value = [17, 40]<br/>class = Not phish>, fillcolor="#399de593"] ;
374 -> 375 ;
376 [label=<entropy = 0.0<br/>samples = 8<br/>value = [0, 8]<br/>class = Not phish>, fillcolor="#399de5ff"] ;
375 -> 376 ;
377 [label=<Redirect &le; 0.5<br/>entropy = 0.931<br/>samples = 49<br/>value = [17, 32]<br/>class = Not phish>, fillcolor="#399de578"] ;
375 -> 377 ;
378 [label=<Links_pointing_to_page &le; 1.5<br/>entropy = 0.887<br/>samples = 46<br/>value = [14, 32]<br/>class = Not phish>, fillcolor="#399de58f"] ;
377 -> 378 ;
379 [label=<SFH &le; 1.5<br/>entropy = 0.99<br/>samples = 25<br/>value = [11, 14]<br/>class = Not phish>, fillcolor="#399de537"] ;
378 -> 379 ;
380 [label=<Request_URL &le; 0.5<br/>entropy = 0.65<br/>samples = 6<br/>value = [1, 5]<br/>class = Not phish>, fillcolor="#399de5cc"] ;
379 -> 380 ;
381 [label=<entropy = 0.0<br/>samples = 1<br/>value = [1, 0]<br/>class = Phish>, fillcolor="#e58139ff"] ;
380 -> 381 ;
382 [label=<entropy = 0.0<br/>samples = 5<br/>value = [0, 5]<br/>class = Not phish>, fillcolor="#399de5ff"] ;
380 -> 382 ;
383 [label=<age_of_domain &le; 1.5<br/>entropy = 0.998<br/>samples = 19<br/>value = [10, 9]<br/>class = Phish>, fillcolor="#e5813919"] ;
379 -> 383 ;
384 [label=<DNSRecord &le; 1.0<br/>entropy = 0.89<br/>samples = 13<br/>value = [9, 4]<br/>class = Phish>, fillcolor="#e581398e"] ;
383 -> 384 ;
385 [label=<entropy = 0.0<br/>samples = 2<br/>value = [0, 2]<br/>class = Not phish>, fillcolor="#399de5ff"] ;
384 -> 385 ;
386 [label=<Links_in_tags &le; 2.5<br/>entropy = 0.684<br/>samples = 11<br/>value = [9, 2]<br/>class = Phish>, fillcolor="#e58139c6"] ;
384 -> 386 ;
387 [label=<entropy = 0.0<br/>samples = 7<br/>value = [7, 0]<br/>class = Phish>, fillcolor="#e58139ff"] ;
386 -> 387 ;
388 [label=<Submitting_to_email &le; 1.5<br/>entropy = 1.0<br/>samples = 4<br/>value = [2, 2]<br/>class = Phish>, fillcolor="#e5813900"] ;
386 -> 388 ;
389 [label=<entropy = 0.0<br/>samples = 2<br/>value = [2, 0]<br/>class = Phish>, fillcolor="#e58139ff"] ;
388 -> 389 ;
390 [label=<entropy = 0.0<br/>samples = 2<br/>value = [0, 2]<br/>class = Not phish>, fillcolor="#399de5ff"] ;
388 -> 390 ;
391 [label=<double_slash_redirecting &le; 1.0<br/>entropy = 0.65<br/>samples = 6<br/>value = [1, 5]<br/>class = Not phish>, fillcolor="#399de5cc"] ;
383 -> 391 ;
392 [label=<entropy = 0.0<br/>samples = 1<br/>value = [1, 0]<br/>class = Phish>, fillcolor="#e58139ff"] ;
391 -> 392 ;
393 [label=<entropy = 0.0<br/>samples = 5<br/>value = [0, 5]<br/>class = Not phish>, fillcolor="#399de5ff"] ;
391 -> 393 ;
394 [label=<age_of_domain &le; 0.5<br/>entropy = 0.592<br/>samples = 21<br/>value = [3, 18]<br/>class = Not phish>, fillcolor="#399de5d4"] ;
378 -> 394 ;
395 [label=<entropy = 0.0<br/>samples = 2<br/>value = [2, 0]<br/>class = Phish>, fillcolor="#e58139ff"] ;
394 -> 395 ;
396 [label=<Shortining_Service &le; 1.5<br/>entropy = 0.297<br/>samples = 19<br/>value = [1, 18]<br/>class = Not phish>, fillcolor="#399de5f1"] ;
394 -> 396 ;
397 [label=<entropy = 0.0<br/>samples = 1<br/>value = [1, 0]<br/>class = Phish>, fillcolor="#e58139ff"] ;
396 -> 397 ;
398 [label=<entropy = 0.0<br/>samples = 18<br/>value = [0, 18]<br/>class = Not phish>, fillcolor="#399de5ff"] ;
396 -> 398 ;
399 [label=<entropy = 0.0<br/>samples = 3<br/>value = [3, 0]<br/>class = Phish>, fillcolor="#e58139ff"] ;
377 -> 399 ;
400 [label=<Links_in_tags &le; 2.5<br/>entropy = 0.376<br/>samples = 275<br/>value = [20, 255]<br/>class = Not phish>, fillcolor="#399de5eb"] ;
374 -> 400 ;
401 [label=<Page_Rank &le; 1.5<br/>entropy = 0.503<br/>samples = 162<br/>value = [18, 144]<br/>class = Not phish>, fillcolor="#399de5df"] ;
400 -> 401 ;
402 [label=<Statistical_report &le; 0.5<br/>entropy = 0.289<br/>samples = 79<br/>value = [4, 75]<br/>class = Not phish>, fillcolor="#399de5f1"] ;
401 -> 402 ;
403 [label=<SFH &le; 1.5<br/>entropy = 0.881<br/>samples = 10<br/>value = [3, 7]<br/>class = Not phish>, fillcolor="#399de592"] ;
402 -> 403 ;
404 [label=<entropy = 0.0<br/>samples = 5<br/>value = [0, 5]<br/>class = Not phish>, fillcolor="#399de5ff"] ;
403 -> 404 ;
405 [label=<web_traffic &le; 1.5<br/>entropy = 0.971<br/>samples = 5<br/>value = [3, 2]<br/>class = Phish>, fillcolor="#e5813955"] ;
403 -> 405 ;
406 [label=<entropy = 0.0<br/>samples = 3<br/>value = [3, 0]<br/>class = Phish>, fillcolor="#e58139ff"] ;
405 -> 406 ;
407 [label=<entropy = 0.0<br/>samples = 2<br/>value = [0, 2]<br/>class = Not phish>, fillcolor="#399de5ff"] ;
405 -> 407 ;
408 [label=<web_traffic &le; 0.5<br/>entropy = 0.109<br/>samples = 69<br/>value = [1, 68]<br/>class = Not phish>, fillcolor="#399de5fb"] ;
402 -> 408 ;
409 [label=<SFH &le; 0.5<br/>entropy = 0.503<br/>samples = 9<br/>value = [1, 8]<br/>class = Not phish>, fillcolor="#399de5df"] ;
408 -> 409 ;
410 [label=<entropy = 0.0<br/>samples = 1<br/>value = [1, 0]<br/>class = Phish>, fillcolor="#e58139ff"] ;
409 -> 410 ;
411 [label=<entropy = 0.0<br/>samples = 8<br/>value = [0, 8]<br/>class = Not phish>, fillcolor="#399de5ff"] ;
409 -> 411 ;
412 [label=<entropy = 0.0<br/>samples = 60<br/>value = [0, 60]<br/>class = Not phish>, fillcolor="#399de5ff"] ;
408 -> 412 ;
413 [label=<web_traffic &le; 0.5<br/>entropy = 0.655<br/>samples = 83<br/>value = [14, 69]<br/>class = Not phish>, fillcolor="#399de5cb"] ;
401 -> 413 ;
414 [label=<HTTPS_token &le; 1.5<br/>entropy = 0.98<br/>samples = 12<br/>value = [5, 7]<br/>class = Not phish>, fillcolor="#399de549"] ;
413 -> 414 ;
415 [label=<entropy = 0.0<br/>samples = 3<br/>value = [0, 3]<br/>class = Not phish>, fillcolor="#399de5ff"] ;
414 -> 415 ;
416 [label=<Links_in_tags &le; 1.5<br/>entropy = 0.991<br/>samples = 9<br/>value = [5, 4]<br/>class = Phish>, fillcolor="#e5813933"] ;
414 -> 416 ;
417 [label=<Links_pointing_to_page &le; 1.5<br/>entropy = 0.954<br/>samples = 8<br/>value = [5, 3]<br/>class = Phish>, fillcolor="#e5813966"] ;
416 -> 417 ;
418 [label=<URL_Length &le; 2.0<br/>entropy = 0.863<br/>samples = 7<br/>value = [5, 2]<br/>class = Phish>, fillcolor="#e5813999"] ;
417 -> 418 ;
419 [label=<entropy = 0.0<br/>samples = 1<br/>value = [0, 1]<br/>class = Not phish>, fillcolor="#399de5ff"] ;
418 -> 419 ;
420 [label=<Submitting_to_email &le; 1.0<br/>entropy = 0.65<br/>samples = 6<br/>value = [5, 1]<br/>class = Phish>, fillcolor="#e58139cc"] ;
418 -> 420 ;
421 [label=<double_slash_redirecting &le; 1.0<br/>entropy = 1.0<br/>samples = 2<br/>value = [1, 1]<br/>class = Phish>, fillcolor="#e5813900"] ;
420 -> 421 ;
422 [label=<entropy = 0.0<br/>samples = 1<br/>value = [1, 0]<br/>class = Phish>, fillcolor="#e58139ff"] ;
421 -> 422 ;
423 [label=<entropy = 0.0<br/>samples = 1<br/>value = [0, 1]<br/>class = Not phish>, fillcolor="#399de5ff"] ;
421 -> 423 ;
424 [label=<entropy = 0.0<br/>samples = 4<br/>value = [4, 0]<br/>class = Phish>, fillcolor="#e58139ff"] ;
420 -> 424 ;
425 [label=<entropy = 0.0<br/>samples = 1<br/>value = [0, 1]<br/>class = Not phish>, fillcolor="#399de5ff"] ;
417 -> 425 ;
426 [label=<entropy = 0.0<br/>samples = 1<br/>value = [0, 1]<br/>class = Not phish>, fillcolor="#399de5ff"] ;
416 -> 426 ;
427 [label=<Google_Index &le; 1.5<br/>entropy = 0.548<br/>samples = 71<br/>value = [9, 62]<br/>class = Not phish>, fillcolor="#399de5da"] ;
413 -> 427 ;
428 [label=<Google_Index &le; 0.5<br/>entropy = 0.937<br/>samples = 17<br/>value = [6, 11]<br/>class = Not phish>, fillcolor="#399de574"] ;
427 -> 428 ;
429 [label=<age_of_domain &le; 1.5<br/>entropy = 0.414<br/>samples = 12<br/>value = [1, 11]<br/>class = Not phish>, fillcolor="#399de5e8"] ;
428 -> 429 ;
430 [label=<entropy = 0.0<br/>samples = 9<br/>value = [0, 9]<br/>class = Not phish>, fillcolor="#399de5ff"] ;
429 -> 430 ;
431 [label=<web_traffic &le; 1.5<br/>entropy = 0.918<br/>samples = 3<br/>value = [1, 2]<br/>class = Not phish>, fillcolor="#399de57f"] ;
429 -> 431 ;
432 [label=<entropy = 0.0<br/>samples = 1<br/>value = [1, 0]<br/>class = Phish>, fillcolor="#e58139ff"] ;
431 -> 432 ;
433 [label=<entropy = 0.0<br/>samples = 2<br/>value = [0, 2]<br/>class = Not phish>, fillcolor="#399de5ff"] ;
431 -> 433 ;
434 [label=<entropy = 0.0<br/>samples = 5<br/>value = [5, 0]<br/>class = Phish>, fillcolor="#e58139ff"] ;
428 -> 434 ;
435 [label=<Redirect &le; 0.5<br/>entropy = 0.31<br/>samples = 54<br/>value = [3, 51]<br/>class = Not phish>, fillcolor="#399de5f0"] ;
427 -> 435 ;
436 [label=<Submitting_to_email &le; 0.5<br/>entropy = 0.235<br/>samples = 52<br/>value = [2, 50]<br/>class = Not phish>, fillcolor="#399de5f5"] ;
435 -> 436 ;
437 [label=<Links_in_tags &le; 0.5<br/>entropy = 0.65<br/>samples = 6<br/>value = [1, 5]<br/>class = Not phish>, fillcolor="#399de5cc"] ;
436 -> 437 ;
438 [label=<entropy = 0.0<br/>samples = 1<br/>value = [1, 0]<br/>class = Phish>, fillcolor="#e58139ff"] ;
437 -> 438 ;
439 [label=<entropy = 0.0<br/>samples = 5<br/>value = [0, 5]<br/>class = Not phish>, fillcolor="#399de5ff"] ;
437 -> 439 ;
440 [label=<URL_Length &le; 1.5<br/>entropy = 0.151<br/>samples = 46<br/>value = [1, 45]<br/>class = Not phish>, fillcolor="#399de5f9"] ;
436 -> 440 ;
441 [label=<Request_URL &le; 1.5<br/>entropy = 0.65<br/>samples = 6<br/>value = [1, 5]<br/>class = Not phish>, fillcolor="#399de5cc"] ;
440 -> 441 ;
442 [label=<Submitting_to_email &le; 1.5<br/>entropy = 1.0<br/>samples = 2<br/>value = [1, 1]<br/>class = Phish>, fillcolor="#e5813900"] ;
441 -> 442 ;
443 [label=<entropy = 0.0<br/>samples = 1<br/>value = [0, 1]<br/>class = Not phish>, fillcolor="#399de5ff"] ;
442 -> 443 ;
444 [label=<entropy = 0.0<br/>samples = 1<br/>value = [1, 0]<br/>class = Phish>, fillcolor="#e58139ff"] ;
442 -> 444 ;
445 [label=<entropy = 0.0<br/>samples = 4<br/>value = [0, 4]<br/>class = Not phish>, fillcolor="#399de5ff"] ;
441 -> 445 ;
446 [label=<entropy = 0.0<br/>samples = 40<br/>value = [0, 40]<br/>class = Not phish>, fillcolor="#399de5ff"] ;
440 -> 446 ;
447 [label=<having_At_Symbol &le; 1.0<br/>entropy = 1.0<br/>samples = 2<br/>value = [1, 1]<br/>class = Phish>, fillcolor="#e5813900"] ;
435 -> 447 ;
448 [label=<entropy = 0.0<br/>samples = 1<br/>value = [1, 0]<br/>class = Phish>, fillcolor="#e58139ff"] ;
447 -> 448 ;
449 [label=<entropy = 0.0<br/>samples = 1<br/>value = [0, 1]<br/>class = Not phish>, fillcolor="#399de5ff"] ;
447 -> 449 ;
450 [label=<Page_Rank &le; 0.5<br/>entropy = 0.128<br/>samples = 113<br/>value = [2, 111]<br/>class = Not phish>, fillcolor="#399de5fa"] ;
400 -> 450 ;
451 [label=<SFH &le; 0.5<br/>entropy = 0.469<br/>samples = 10<br/>value = [1, 9]<br/>class = Not phish>, fillcolor="#399de5e3"] ;
450 -> 451 ;
452 [label=<entropy = 0.0<br/>samples = 1<br/>value = [1, 0]<br/>class = Phish>, fillcolor="#e58139ff"] ;
451 -> 452 ;
453 [label=<entropy = 0.0<br/>samples = 9<br/>value = [0, 9]<br/>class = Not phish>, fillcolor="#399de5ff"] ;
451 -> 453 ;
454 [label=<Google_Index &le; 1.5<br/>entropy = 0.079<br/>samples = 103<br/>value = [1, 102]<br/>class = Not phish>, fillcolor="#399de5fc"] ;
450 -> 454 ;
455 [label=<Google_Index &le; 0.5<br/>entropy = 0.31<br/>samples = 18<br/>value = [1, 17]<br/>class = Not phish>, fillcolor="#399de5f0"] ;
454 -> 455 ;
456 [label=<entropy = 0.0<br/>samples = 11<br/>value = [0, 11]<br/>class = Not phish>, fillcolor="#399de5ff"] ;
455 -> 456 ;
457 [label=<Page_Rank &le; 1.5<br/>entropy = 0.592<br/>samples = 7<br/>value = [1, 6]<br/>class = Not phish>, fillcolor="#399de5d4"] ;
455 -> 457 ;
458 [label=<entropy = 0.0<br/>samples = 4<br/>value = [0, 4]<br/>class = Not phish>, fillcolor="#399de5ff"] ;
457 -> 458 ;
459 [label=<Shortining_Service &le; 1.0<br/>entropy = 0.918<br/>samples = 3<br/>value = [1, 2]<br/>class = Not phish>, fillcolor="#399de57f"] ;
457 -> 459 ;
460 [label=<entropy = 0.0<br/>samples = 2<br/>value = [0, 2]<br/>class = Not phish>, fillcolor="#399de5ff"] ;
459 -> 460 ;
461 [label=<entropy = 0.0<br/>samples = 1<br/>value = [1, 0]<br/>class = Phish>, fillcolor="#e58139ff"] ;
459 -> 461 ;
462 [label=<entropy = 0.0<br/>samples = 85<br/>value = [0, 85]<br/>class = Not phish>, fillcolor="#399de5ff"] ;
454 -> 462 ;
463 [label=<Links_pointing_to_page &le; 1.5<br/>entropy = 0.921<br/>samples = 229<br/>value = [77, 152]<br/>class = Not phish>, fillcolor="#399de57e"] ;
365 -> 463 ;
464 [label=<Links_in_tags &le; 2.5<br/>entropy = 0.985<br/>samples = 154<br/>value = [66, 88]<br/>class = Not phish>, fillcolor="#399de540"] ;
463 -> 464 ;
465 [label=<Google_Index &le; 1.5<br/>entropy = 0.996<br/>samples = 95<br/>value = [51, 44]<br/>class = Phish>, fillcolor="#e5813923"] ;
464 -> 465 ;
466 [label=<HTTPS_token &le; 1.5<br/>entropy = 0.323<br/>samples = 17<br/>value = [16, 1]<br/>class = Phish>, fillcolor="#e58139ef"] ;
465 -> 466 ;
467 [label=<Links_pointing_to_page &le; 0.5<br/>entropy = 0.918<br/>samples = 3<br/>value = [2, 1]<br/>class = Phish>, fillcolor="#e581397f"] ;
466 -> 467 ;
468 [label=<entropy = 0.0<br/>samples = 1<br/>value = [0, 1]<br/>class = Not phish>, fillcolor="#399de5ff"] ;
467 -> 468 ;
469 [label=<entropy = 0.0<br/>samples = 2<br/>value = [2, 0]<br/>class = Phish>, fillcolor="#e58139ff"] ;
467 -> 469 ;
470 [label=<entropy = 0.0<br/>samples = 14<br/>value = [14, 0]<br/>class = Phish>, fillcolor="#e58139ff"] ;
466 -> 470 ;
471 [label=<Shortining_Service &le; 0.5<br/>entropy = 0.992<br/>samples = 78<br/>value = [35, 43]<br/>class = Not phish>, fillcolor="#399de52f"] ;
465 -> 471 ;
472 [label=<entropy = 0.0<br/>samples = 6<br/>value = [0, 6]<br/>class = Not phish>, fillcolor="#399de5ff"] ;
471 -> 472 ;
473 [label=<having_At_Symbol &le; 1.5<br/>entropy = 0.999<br/>samples = 72<br/>value = [35, 37]<br/>class = Not phish>, fillcolor="#399de50e"] ;
471 -> 473 ;
474 [label=<Submitting_to_email &le; 0.5<br/>entropy = 0.544<br/>samples = 8<br/>value = [7, 1]<br/>class = Phish>, fillcolor="#e58139db"] ;
473 -> 474 ;
475 [label=<entropy = 0.0<br/>samples = 1<br/>value = [0, 1]<br/>class = Not phish>, fillcolor="#399de5ff"] ;
474 -> 475 ;
476 [label=<entropy = 0.0<br/>samples = 7<br/>value = [7, 0]<br/>class = Phish>, fillcolor="#e58139ff"] ;
474 -> 476 ;
477 [label=<SFH &le; 1.5<br/>entropy = 0.989<br/>samples = 64<br/>value = [28, 36]<br/>class = Not phish>, fillcolor="#399de539"] ;
473 -> 477 ;
478 [label=<entropy = 0.0<br/>samples = 8<br/>value = [0, 8]<br/>class = Not phish>, fillcolor="#399de5ff"] ;
477 -> 478 ;
479 [label=<double_slash_redirecting &le; 1.5<br/>entropy = 1.0<br/>samples = 56<br/>value = [28, 28]<br/>class = Phish>, fillcolor="#e5813900"] ;
477 -> 479 ;
480 [label=<entropy = 0.0<br/>samples = 5<br/>value = [5, 0]<br/>class = Phish>, fillcolor="#e58139ff"] ;
479 -> 480 ;
481 [label=<Submitting_to_email &le; 1.5<br/>entropy = 0.993<br/>samples = 51<br/>value = [23, 28]<br/>class = Not phish>, fillcolor="#399de52e"] ;
479 -> 481 ;
482 [label=<entropy = 0.0<br/>samples = 6<br/>value = [0, 6]<br/>class = Not phish>, fillcolor="#399de5ff"] ;
481 -> 482 ;
483 [label=<having_IP_Address &le; 0.5<br/>entropy = 1.0<br/>samples = 45<br/>value = [23, 22]<br/>class = Phish>, fillcolor="#e581390b"] ;
481 -> 483 ;
484 [label=<popUpWidnow &le; 0.5<br/>entropy = 0.592<br/>samples = 7<br/>value = [6, 1]<br/>class = Phish>, fillcolor="#e58139d4"] ;
483 -> 484 ;
485 [label=<entropy = 0.0<br/>samples = 1<br/>value = [0, 1]<br/>class = Not phish>, fillcolor="#399de5ff"] ;
484 -> 485 ;
486 [label=<entropy = 0.0<br/>samples = 6<br/>value = [6, 0]<br/>class = Phish>, fillcolor="#e58139ff"] ;
484 -> 486 ;
487 [label=<URL_Length &le; 2.0<br/>entropy = 0.992<br/>samples = 38<br/>value = [17, 21]<br/>class = Not phish>, fillcolor="#399de531"] ;
483 -> 487 ;
488 [label=<entropy = 0.0<br/>samples = 4<br/>value = [0, 4]<br/>class = Not phish>, fillcolor="#399de5ff"] ;
487 -> 488 ;
489 [label=<DNSRecord &le; 1.5<br/>entropy = 1.0<br/>samples = 34<br/>value = [17, 17]<br/>class = Phish>, fillcolor="#e5813900"] ;
487 -> 489 ;
490 [label=<age_of_domain &le; 1.5<br/>entropy = 0.863<br/>samples = 7<br/>value = [5, 2]<br/>class = Phish>, fillcolor="#e5813999"] ;
489 -> 490 ;
491 [label=<entropy = 0.0<br/>samples = 5<br/>value = [5, 0]<br/>class = Phish>, fillcolor="#e58139ff"] ;
490 -> 491 ;
492 [label=<entropy = 0.0<br/>samples = 2<br/>value = [0, 2]<br/>class = Not phish>, fillcolor="#399de5ff"] ;
490 -> 492 ;
493 [label=<Statistical_report &le; 0.5<br/>entropy = 0.991<br/>samples = 27<br/>value = [12, 15]<br/>class = Not phish>, fillcolor="#399de533"] ;
489 -> 493 ;
494 [label=<entropy = 0.0<br/>samples = 1<br/>value = [1, 0]<br/>class = Phish>, fillcolor="#e58139ff"] ;
493 -> 494 ;
495 [label=<popUpWidnow &le; 0.5<br/>entropy = 0.983<br/>samples = 26<br/>value = [11, 15]<br/>class = Not phish>, fillcolor="#399de544"] ;
493 -> 495 ;
496 [label=<entropy = 0.0<br/>samples = 1<br/>value = [0, 1]<br/>class = Not phish>, fillcolor="#399de5ff"] ;
495 -> 496 ;
497 [label=<Request_URL &le; 1.0<br/>entropy = 0.99<br/>samples = 25<br/>value = [11, 14]<br/>class = Not phish>, fillcolor="#399de537"] ;
495 -> 497 ;
498 [label=<entropy = 0.0<br/>samples = 1<br/>value = [0, 1]<br/>class = Not phish>, fillcolor="#399de5ff"] ;
497 -> 498 ;
499 [label=<HTTPS_token &le; 0.5<br/>entropy = 0.995<br/>samples = 24<br/>value = [11, 13]<br/>class = Not phish>, fillcolor="#399de527"] ;
497 -> 499 ;
500 [label=<entropy = 0.0<br/>samples = 2<br/>value = [2, 0]<br/>class = Phish>, fillcolor="#e58139ff"] ;
499 -> 500 ;
501 [label=<Page_Rank &le; 0.5<br/>entropy = 0.976<br/>samples = 22<br/>value = [9, 13]<br/>class = Not phish>, fillcolor="#399de54e"] ;
499 -> 501 ;
502 [label=<entropy = 0.0<br/>samples = 1<br/>value = [0, 1]<br/>class = Not phish>, fillcolor="#399de5ff"] ;
501 -> 502 ;
503 [label=<Links_in_tags &le; 0.5<br/>entropy = 0.985<br/>samples = 21<br/>value = [9, 12]<br/>class = Not phish>, fillcolor="#399de540"] ;
501 -> 503 ;
504 [label=<HTTPS_token &le; 1.5<br/>entropy = 0.918<br/>samples = 3<br/>value = [2, 1]<br/>class = Phish>, fillcolor="#e581397f"] ;
503 -> 504 ;
505 [label=<entropy = 0.0<br/>samples = 1<br/>value = [0, 1]<br/>class = Not phish>, fillcolor="#399de5ff"] ;
504 -> 505 ;
506 [label=<entropy = 0.0<br/>samples = 2<br/>value = [2, 0]<br/>class = Phish>, fillcolor="#e58139ff"] ;
504 -> 506 ;
507 [label=<HTTPS_token &le; 1.5<br/>entropy = 0.964<br/>samples = 18<br/>value = [7, 11]<br/>class = Not phish>, fillcolor="#399de55d"] ;
503 -> 507 ;
508 [label=<Links_in_tags &le; 1.5<br/>entropy = 0.918<br/>samples = 3<br/>value = [2, 1]<br/>class = Phish>, fillcolor="#e581397f"] ;
507 -> 508 ;
509 [label=<entropy = 1.0<br/>samples = 2<br/>value = [1, 1]<br/>class = Phish>, fillcolor="#e5813900"] ;
508 -> 509 ;
510 [label=<entropy = 0.0<br/>samples = 1<br/>value = [1, 0]<br/>class = Phish>, fillcolor="#e58139ff"] ;
508 -> 510 ;
511 [label=<Redirect &le; 0.5<br/>entropy = 0.918<br/>samples = 15<br/>value = [5, 10]<br/>class = Not phish>, fillcolor="#399de57f"] ;
507 -> 511 ;
512 [label=<Page_Rank &le; 1.5<br/>entropy = 0.89<br/>samples = 13<br/>value = [4, 9]<br/>class = Not phish>, fillcolor="#399de58e"] ;
511 -> 512 ;
513 [label=<age_of_domain &le; 1.0<br/>entropy = 0.811<br/>samples = 4<br/>value = [1, 3]<br/>class = Not phish>, fillcolor="#399de5aa"] ;
512 -> 513 ;
514 [label=<entropy = 0.0<br/>samples = 1<br/>value = [0, 1]<br/>class = Not phish>, fillcolor="#399de5ff"] ;
513 -> 514 ;
515 [label=<entropy = 0.918<br/>samples = 3<br/>value = [1, 2]<br/>class = Not phish>, fillcolor="#399de57f"] ;
513 -> 515 ;
516 [label=<age_of_domain &le; 0.5<br/>entropy = 0.918<br/>samples = 9<br/>value = [3, 6]<br/>class = Not phish>, fillcolor="#399de57f"] ;
512 -> 516 ;
517 [label=<entropy = 1.0<br/>samples = 2<br/>value = [1, 1]<br/>class = Phish>, fillcolor="#e5813900"] ;
516 -> 517 ;
518 [label=<age_of_domain &le; 1.5<br/>entropy = 0.863<br/>samples = 7<br/>value = [2, 5]<br/>class = Not phish>, fillcolor="#399de599"] ;
516 -> 518 ;
519 [label=<Links_in_tags &le; 1.5<br/>entropy = 0.811<br/>samples = 4<br/>value = [1, 3]<br/>class = Not phish>, fillcolor="#399de5aa"] ;
518 -> 519 ;
520 [label=<entropy = 1.0<br/>samples = 2<br/>value = [1, 1]<br/>class = Phish>, fillcolor="#e5813900"] ;
519 -> 520 ;
521 [label=<entropy = 0.0<br/>samples = 2<br/>value = [0, 2]<br/>class = Not phish>, fillcolor="#399de5ff"] ;
519 -> 521 ;
522 [label=<Links_in_tags &le; 1.5<br/>entropy = 0.918<br/>samples = 3<br/>value = [1, 2]<br/>class = Not phish>, fillcolor="#399de57f"] ;
518 -> 522 ;
523 [label=<entropy = 0.0<br/>samples = 2<br/>value = [0, 2]<br/>class = Not phish>, fillcolor="#399de5ff"] ;
522 -> 523 ;
524 [label=<entropy = 0.0<br/>samples = 1<br/>value = [1, 0]<br/>class = Phish>, fillcolor="#e58139ff"] ;
522 -> 524 ;
525 [label=<Page_Rank &le; 1.5<br/>entropy = 1.0<br/>samples = 2<br/>value = [1, 1]<br/>class = Phish>, fillcolor="#e5813900"] ;
511 -> 525 ;
526 [label=<entropy = 0.0<br/>samples = 1<br/>value = [1, 0]<br/>class = Phish>, fillcolor="#e58139ff"] ;
525 -> 526 ;
527 [label=<entropy = 0.0<br/>samples = 1<br/>value = [0, 1]<br/>class = Not phish>, fillcolor="#399de5ff"] ;
525 -> 527 ;
528 [label=<DNSRecord &le; 1.5<br/>entropy = 0.818<br/>samples = 59<br/>value = [15, 44]<br/>class = Not phish>, fillcolor="#399de5a8"] ;
464 -> 528 ;
529 [label=<double_slash_redirecting &le; 1.5<br/>entropy = 0.89<br/>samples = 13<br/>value = [9, 4]<br/>class = Phish>, fillcolor="#e581398e"] ;
528 -> 529 ;
530 [label=<entropy = 0.0<br/>samples = 3<br/>value = [3, 0]<br/>class = Phish>, fillcolor="#e58139ff"] ;
529 -> 530 ;
531 [label=<on_mouseover &le; 0.5<br/>entropy = 0.971<br/>samples = 10<br/>value = [6, 4]<br/>class = Phish>, fillcolor="#e5813955"] ;
529 -> 531 ;
532 [label=<entropy = 0.0<br/>samples = 2<br/>value = [2, 0]<br/>class = Phish>, fillcolor="#e58139ff"] ;
531 -> 532 ;
533 [label=<Submitting_to_email &le; 1.0<br/>entropy = 1.0<br/>samples = 8<br/>value = [4, 4]<br/>class = Phish>, fillcolor="#e5813900"] ;
531 -> 533 ;
534 [label=<entropy = 0.0<br/>samples = 2<br/>value = [0, 2]<br/>class = Not phish>, fillcolor="#399de5ff"] ;
533 -> 534 ;
535 [label=<URL_Length &le; 1.5<br/>entropy = 0.918<br/>samples = 6<br/>value = [4, 2]<br/>class = Phish>, fillcolor="#e581397f"] ;
533 -> 535 ;
536 [label=<entropy = 0.0<br/>samples = 1<br/>value = [0, 1]<br/>class = Not phish>, fillcolor="#399de5ff"] ;
535 -> 536 ;
537 [label=<Page_Rank &le; 1.5<br/>entropy = 0.722<br/>samples = 5<br/>value = [4, 1]<br/>class = Phish>, fillcolor="#e58139bf"] ;
535 -> 537 ;
538 [label=<entropy = 0.0<br/>samples = 3<br/>value = [3, 0]<br/>class = Phish>, fillcolor="#e58139ff"] ;
537 -> 538 ;
539 [label=<entropy = 1.0<br/>samples = 2<br/>value = [1, 1]<br/>class = Phish>, fillcolor="#e5813900"] ;
537 -> 539 ;
540 [label=<Redirect &le; 0.5<br/>entropy = 0.559<br/>samples = 46<br/>value = [6, 40]<br/>class = Not phish>, fillcolor="#399de5d9"] ;
528 -> 540 ;
541 [label=<having_At_Symbol &le; 1.5<br/>entropy = 0.446<br/>samples = 43<br/>value = [4, 39]<br/>class = Not phish>, fillcolor="#399de5e5"] ;
540 -> 541 ;
542 [label=<entropy = 0.0<br/>samples = 10<br/>value = [0, 10]<br/>class = Not phish>, fillcolor="#399de5ff"] ;
541 -> 542 ;
543 [label=<having_IP_Address &le; 0.5<br/>entropy = 0.533<br/>samples = 33<br/>value = [4, 29]<br/>class = Not phish>, fillcolor="#399de5dc"] ;
541 -> 543 ;
544 [label=<Links_pointing_to_page &le; 0.5<br/>entropy = 0.918<br/>samples = 6<br/>value = [2, 4]<br/>class = Not phish>, fillcolor="#399de57f"] ;
543 -> 544 ;
545 [label=<entropy = 0.0<br/>samples = 1<br/>value = [1, 0]<br/>class = Phish>, fillcolor="#e58139ff"] ;
544 -> 545 ;
546 [label=<URL_Length &le; 0.5<br/>entropy = 0.722<br/>samples = 5<br/>value = [1, 4]<br/>class = Not phish>, fillcolor="#399de5bf"] ;
544 -> 546 ;
547 [label=<entropy = 0.0<br/>samples = 1<br/>value = [1, 0]<br/>class = Phish>, fillcolor="#e58139ff"] ;
546 -> 547 ;
548 [label=<entropy = 0.0<br/>samples = 4<br/>value = [0, 4]<br/>class = Not phish>, fillcolor="#399de5ff"] ;
546 -> 548 ;
549 [label=<age_of_domain &le; 1.5<br/>entropy = 0.381<br/>samples = 27<br/>value = [2, 25]<br/>class = Not phish>, fillcolor="#399de5eb"] ;
543 -> 549 ;
550 [label=<HTTPS_token &le; 1.0<br/>entropy = 0.619<br/>samples = 13<br/>value = [2, 11]<br/>class = Not phish>, fillcolor="#399de5d1"] ;
549 -> 550 ;
551 [label=<entropy = 0.0<br/>samples = 1<br/>value = [1, 0]<br/>class = Phish>, fillcolor="#e58139ff"] ;
550 -> 551 ;
552 [label=<double_slash_redirecting &le; 1.0<br/>entropy = 0.414<br/>samples = 12<br/>value = [1, 11]<br/>class = Not phish>, fillcolor="#399de5e8"] ;
550 -> 552 ;
553 [label=<entropy = 0.0<br/>samples = 3<br/>value = [0, 3]<br/>class = Not phish>, fillcolor="#399de5ff"] ;
552 -> 553 ;
554 [label=<Submitting_to_email &le; 1.0<br/>entropy = 0.503<br/>samples = 9<br/>value = [1, 8]<br/>class = Not phish>, fillcolor="#399de5df"] ;
552 -> 554 ;
555 [label=<entropy = 0.0<br/>samples = 3<br/>value = [0, 3]<br/>class = Not phish>, fillcolor="#399de5ff"] ;
554 -> 555 ;
556 [label=<SFH &le; 1.0<br/>entropy = 0.65<br/>samples = 6<br/>value = [1, 5]<br/>class = Not phish>, fillcolor="#399de5cc"] ;
554 -> 556 ;
557 [label=<entropy = 0.0<br/>samples = 1<br/>value = [0, 1]<br/>class = Not phish>, fillcolor="#399de5ff"] ;
556 -> 557 ;
558 [label=<Links_pointing_to_page &le; 0.5<br/>entropy = 0.722<br/>samples = 5<br/>value = [1, 4]<br/>class = Not phish>, fillcolor="#399de5bf"] ;
556 -> 558 ;
559 [label=<entropy = 0.0<br/>samples = 1<br/>value = [0, 1]<br/>class = Not phish>, fillcolor="#399de5ff"] ;
558 -> 559 ;
560 [label=<Statistical_report &le; 0.5<br/>entropy = 0.811<br/>samples = 4<br/>value = [1, 3]<br/>class = Not phish>, fillcolor="#399de5aa"] ;
558 -> 560 ;
561 [label=<entropy = 0.0<br/>samples = 1<br/>value = [0, 1]<br/>class = Not phish>, fillcolor="#399de5ff"] ;
560 -> 561 ;
562 [label=<Google_Index &le; 1.0<br/>entropy = 0.918<br/>samples = 3<br/>value = [1, 2]<br/>class = Not phish>, fillcolor="#399de57f"] ;
560 -> 562 ;
563 [label=<entropy = 0.0<br/>samples = 1<br/>value = [0, 1]<br/>class = Not phish>, fillcolor="#399de5ff"] ;
562 -> 563 ;
564 [label=<entropy = 1.0<br/>samples = 2<br/>value = [1, 1]<br/>class = Phish>, fillcolor="#e5813900"] ;
562 -> 564 ;
565 [label=<entropy = 0.0<br/>samples = 14<br/>value = [0, 14]<br/>class = Not phish>, fillcolor="#399de5ff"] ;
549 -> 565 ;
566 [label=<Submitting_to_email &le; 1.5<br/>entropy = 0.918<br/>samples = 3<br/>value = [2, 1]<br/>class = Phish>, fillcolor="#e581397f"] ;
540 -> 566 ;
567 [label=<entropy = 0.0<br/>samples = 2<br/>value = [2, 0]<br/>class = Phish>, fillcolor="#e58139ff"] ;
566 -> 567 ;
568 [label=<entropy = 0.0<br/>samples = 1<br/>value = [0, 1]<br/>class = Not phish>, fillcolor="#399de5ff"] ;
566 -> 568 ;
569 [label=<URL_Length &le; 1.5<br/>entropy = 0.601<br/>samples = 75<br/>value = [11, 64]<br/>class = Not phish>, fillcolor="#399de5d3"] ;
463 -> 569 ;
570 [label=<Links_in_tags &le; 0.5<br/>entropy = 0.881<br/>samples = 20<br/>value = [6, 14]<br/>class = Not phish>, fillcolor="#399de592"] ;
569 -> 570 ;
571 [label=<entropy = 0.0<br/>samples = 2<br/>value = [2, 0]<br/>class = Phish>, fillcolor="#e58139ff"] ;
570 -> 571 ;
572 [label=<URL_Length &le; 0.5<br/>entropy = 0.764<br/>samples = 18<br/>value = [4, 14]<br/>class = Not phish>, fillcolor="#399de5b6"] ;
570 -> 572 ;
573 [label=<entropy = 0.0<br/>samples = 6<br/>value = [0, 6]<br/>class = Not phish>, fillcolor="#399de5ff"] ;
572 -> 573 ;
574 [label=<Statistical_report &le; 0.5<br/>entropy = 0.918<br/>samples = 12<br/>value = [4, 8]<br/>class = Not phish>, fillcolor="#399de57f"] ;
572 -> 574 ;
575 [label=<entropy = 0.0<br/>samples = 1<br/>value = [1, 0]<br/>class = Phish>, fillcolor="#e58139ff"] ;
574 -> 575 ;
576 [label=<Google_Index &le; 1.5<br/>entropy = 0.845<br/>samples = 11<br/>value = [3, 8]<br/>class = Not phish>, fillcolor="#399de59f"] ;
574 -> 576 ;
577 [label=<having_IP_Address &le; 0.5<br/>entropy = 1.0<br/>samples = 6<br/>value = [3, 3]<br/>class = Phish>, fillcolor="#e5813900"] ;
576 -> 577 ;
578 [label=<DNSRecord &le; 0.5<br/>entropy = 0.971<br/>samples = 5<br/>value = [3, 2]<br/>class = Phish>, fillcolor="#e5813955"] ;
577 -> 578 ;
579 [label=<entropy = 0.0<br/>samples = 1<br/>value = [0, 1]<br/>class = Not phish>, fillcolor="#399de5ff"] ;
578 -> 579 ;
580 [label=<Page_Rank &le; 1.5<br/>entropy = 0.811<br/>samples = 4<br/>value = [3, 1]<br/>class = Phish>, fillcolor="#e58139aa"] ;
578 -> 580 ;
581 [label=<entropy = 0.0<br/>samples = 2<br/>value = [2, 0]<br/>class = Phish>, fillcolor="#e58139ff"] ;
580 -> 581 ;
582 [label=<Submitting_to_email &le; 1.0<br/>entropy = 1.0<br/>samples = 2<br/>value = [1, 1]<br/>class = Phish>, fillcolor="#e5813900"] ;
580 -> 582 ;
583 [label=<entropy = 0.0<br/>samples = 1<br/>value = [1, 0]<br/>class = Phish>, fillcolor="#e58139ff"] ;
582 -> 583 ;
584 [label=<entropy = 0.0<br/>samples = 1<br/>value = [0, 1]<br/>class = Not phish>, fillcolor="#399de5ff"] ;
582 -> 584 ;
585 [label=<entropy = 0.0<br/>samples = 1<br/>value = [0, 1]<br/>class = Not phish>, fillcolor="#399de5ff"] ;
577 -> 585 ;
586 [label=<entropy = 0.0<br/>samples = 5<br/>value = [0, 5]<br/>class = Not phish>, fillcolor="#399de5ff"] ;
576 -> 586 ;
587 [label=<having_At_Symbol &le; 1.5<br/>entropy = 0.439<br/>samples = 55<br/>value = [5, 50]<br/>class = Not phish>, fillcolor="#399de5e6"] ;
569 -> 587 ;
588 [label=<entropy = 0.0<br/>samples = 20<br/>value = [0, 20]<br/>class = Not phish>, fillcolor="#399de5ff"] ;
587 -> 588 ;
589 [label=<DNSRecord &le; 0.5<br/>entropy = 0.592<br/>samples = 35<br/>value = [5, 30]<br/>class = Not phish>, fillcolor="#399de5d4"] ;
587 -> 589 ;
590 [label=<entropy = 0.0<br/>samples = 1<br/>value = [1, 0]<br/>class = Phish>, fillcolor="#e58139ff"] ;
589 -> 590 ;
591 [label=<port &le; 0.5<br/>entropy = 0.523<br/>samples = 34<br/>value = [4, 30]<br/>class = Not phish>, fillcolor="#399de5dd"] ;
589 -> 591 ;
592 [label=<entropy = 0.0<br/>samples = 1<br/>value = [1, 0]<br/>class = Phish>, fillcolor="#e58139ff"] ;
591 -> 592 ;
593 [label=<DNSRecord &le; 1.5<br/>entropy = 0.439<br/>samples = 33<br/>value = [3, 30]<br/>class = Not phish>, fillcolor="#399de5e6"] ;
591 -> 593 ;
594 [label=<entropy = 0.0<br/>samples = 14<br/>value = [0, 14]<br/>class = Not phish>, fillcolor="#399de5ff"] ;
593 -> 594 ;
595 [label=<age_of_domain &le; 0.5<br/>entropy = 0.629<br/>samples = 19<br/>value = [3, 16]<br/>class = Not phish>, fillcolor="#399de5cf"] ;
593 -> 595 ;
596 [label=<entropy = 0.0<br/>samples = 1<br/>value = [1, 0]<br/>class = Phish>, fillcolor="#e58139ff"] ;
595 -> 596 ;
597 [label=<Request_URL &le; 1.5<br/>entropy = 0.503<br/>samples = 18<br/>value = [2, 16]<br/>class = Not phish>, fillcolor="#399de5df"] ;
595 -> 597 ;
598 [label=<HTTPS_token &le; 1.0<br/>entropy = 0.764<br/>samples = 9<br/>value = [2, 7]<br/>class = Not phish>, fillcolor="#399de5b6"] ;
597 -> 598 ;
599 [label=<entropy = 0.0<br/>samples = 1<br/>value = [1, 0]<br/>class = Phish>, fillcolor="#e58139ff"] ;
598 -> 599 ;
600 [label=<Page_Rank &le; 1.5<br/>entropy = 0.544<br/>samples = 8<br/>value = [1, 7]<br/>class = Not phish>, fillcolor="#399de5db"] ;
598 -> 600 ;
601 [label=<double_slash_redirecting &le; 1.0<br/>entropy = 1.0<br/>samples = 2<br/>value = [1, 1]<br/>class = Phish>, fillcolor="#e5813900"] ;
600 -> 601 ;
602 [label=<entropy = 0.0<br/>samples = 1<br/>value = [0, 1]<br/>class = Not phish>, fillcolor="#399de5ff"] ;
601 -> 602 ;
603 [label=<entropy = 0.0<br/>samples = 1<br/>value = [1, 0]<br/>class = Phish>, fillcolor="#e58139ff"] ;
601 -> 603 ;
604 [label=<entropy = 0.0<br/>samples = 6<br/>value = [0, 6]<br/>class = Not phish>, fillcolor="#399de5ff"] ;
600 -> 604 ;
605 [label=<entropy = 0.0<br/>samples = 9<br/>value = [0, 9]<br/>class = Not phish>, fillcolor="#399de5ff"] ;
597 -> 605 ;
606 [label=<Shortining_Service &le; 1.5<br/>entropy = 0.171<br/>samples = 275<br/>value = [7, 268]<br/>class = Not phish>, fillcolor="#399de5f8"] ;
182 -> 606 ;
607 [label=<URL_Length &le; 1.5<br/>entropy = 0.469<br/>samples = 60<br/>value = [6, 54]<br/>class = Not phish>, fillcolor="#399de5e3"] ;
606 -> 607 ;
608 [label=<having_At_Symbol &le; 1.5<br/>entropy = 0.9<br/>samples = 19<br/>value = [6, 13]<br/>class = Not phish>, fillcolor="#399de589"] ;
607 -> 608 ;
609 [label=<web_traffic &le; 1.0<br/>entropy = 0.722<br/>samples = 5<br/>value = [4, 1]<br/>class = Phish>, fillcolor="#e58139bf"] ;
608 -> 609 ;
610 [label=<Links_in_tags &le; 1.0<br/>entropy = 1.0<br/>samples = 2<br/>value = [1, 1]<br/>class = Phish>, fillcolor="#e5813900"] ;
609 -> 610 ;
611 [label=<entropy = 0.0<br/>samples = 1<br/>value = [1, 0]<br/>class = Phish>, fillcolor="#e58139ff"] ;
610 -> 611 ;
612 [label=<entropy = 0.0<br/>samples = 1<br/>value = [0, 1]<br/>class = Not phish>, fillcolor="#399de5ff"] ;
610 -> 612 ;
613 [label=<entropy = 0.0<br/>samples = 3<br/>value = [3, 0]<br/>class = Phish>, fillcolor="#e58139ff"] ;
609 -> 613 ;
614 [label=<Links_in_tags &le; 0.5<br/>entropy = 0.592<br/>samples = 14<br/>value = [2, 12]<br/>class = Not phish>, fillcolor="#399de5d4"] ;
608 -> 614 ;
615 [label=<entropy = 0.0<br/>samples = 1<br/>value = [1, 0]<br/>class = Phish>, fillcolor="#e58139ff"] ;
614 -> 615 ;
616 [label=<Links_in_tags &le; 2.5<br/>entropy = 0.391<br/>samples = 13<br/>value = [1, 12]<br/>class = Not phish>, fillcolor="#399de5ea"] ;
614 -> 616 ;
617 [label=<entropy = 0.0<br/>samples = 11<br/>value = [0, 11]<br/>class = Not phish>, fillcolor="#399de5ff"] ;
616 -> 617 ;
618 [label=<web_traffic &le; 2.0<br/>entropy = 1.0<br/>samples = 2<br/>value = [1, 1]<br/>class = Phish>, fillcolor="#e5813900"] ;
616 -> 618 ;
619 [label=<entropy = 0.0<br/>samples = 1<br/>value = [0, 1]<br/>class = Not phish>, fillcolor="#399de5ff"] ;
618 -> 619 ;
620 [label=<entropy = 0.0<br/>samples = 1<br/>value = [1, 0]<br/>class = Phish>, fillcolor="#e58139ff"] ;
618 -> 620 ;
621 [label=<entropy = 0.0<br/>samples = 41<br/>value = [0, 41]<br/>class = Not phish>, fillcolor="#399de5ff"] ;
607 -> 621 ;
622 [label=<Redirect &le; 0.5<br/>entropy = 0.043<br/>samples = 215<br/>value = [1, 214]<br/>class = Not phish>, fillcolor="#399de5fe"] ;
606 -> 622 ;
623 [label=<entropy = 0.0<br/>samples = 204<br/>value = [0, 204]<br/>class = Not phish>, fillcolor="#399de5ff"] ;
622 -> 623 ;
624 [label=<web_traffic &le; 1.5<br/>entropy = 0.439<br/>samples = 11<br/>value = [1, 10]<br/>class = Not phish>, fillcolor="#399de5e6"] ;
622 -> 624 ;
625 [label=<entropy = 0.0<br/>samples = 10<br/>value = [0, 10]<br/>class = Not phish>, fillcolor="#399de5ff"] ;
624 -> 625 ;
626 [label=<entropy = 0.0<br/>samples = 1<br/>value = [1, 0]<br/>class = Phish>, fillcolor="#e58139ff"] ;
624 -> 626 ;
627 [label=<web_traffic &le; 1.5<br/>entropy = 0.93<br/>samples = 4530<br/>value = [2963, 1567]<br/>class = Phish>, fillcolor="#e5813978"] ;
1 -> 627 ;
628 [label=<URL_of_Anchor &le; 2.5<br/>entropy = 0.995<br/>samples = 2387<br/>value = [1093, 1294]<br/>class = Not phish>, fillcolor="#399de528"] ;
627 -> 628 ;
629 [label=<URL_of_Anchor &le; 1.5<br/>entropy = 0.967<br/>samples = 1204<br/>value = [730, 474]<br/>class = Phish>, fillcolor="#e5813959"] ;
628 -> 629 ;
630 [label=<URL_of_Anchor &le; 0.5<br/>entropy = 0.814<br/>samples = 627<br/>value = [158, 469]<br/>class = Not phish>, fillcolor="#399de5a9"] ;
629 -> 630 ;
631 [label=<Request_URL &le; 1.5<br/>entropy = 1.0<br/>samples = 240<br/>value = [119, 121]<br/>class = Not phish>, fillcolor="#399de504"] ;
630 -> 631 ;
632 [label=<Links_in_tags &le; 2.5<br/>entropy = 0.941<br/>samples = 123<br/>value = [79, 44]<br/>class = Phish>, fillcolor="#e5813971"] ;
631 -> 632 ;
633 [label=<SFH &le; 2.5<br/>entropy = 0.776<br/>samples = 83<br/>value = [64, 19]<br/>class = Phish>, fillcolor="#e58139b3"] ;
632 -> 633 ;
634 [label=<Links_in_tags &le; 1.5<br/>entropy = 0.7<br/>samples = 74<br/>value = [60, 14]<br/>class = Phish>, fillcolor="#e58139c4"] ;
633 -> 634 ;
635 [label=<Submitting_to_email &le; 0.5<br/>entropy = 0.918<br/>samples = 30<br/>value = [20, 10]<br/>class = Phish>, fillcolor="#e581397f"] ;
634 -> 635 ;
636 [label=<entropy = 0.0<br/>samples = 7<br/>value = [7, 0]<br/>class = Phish>, fillcolor="#e58139ff"] ;
635 -> 636 ;
637 [label=<Links_pointing_to_page &le; 0.5<br/>entropy = 0.988<br/>samples = 23<br/>value = [13, 10]<br/>class = Phish>, fillcolor="#e581393b"] ;
635 -> 637 ;
638 [label=<entropy = 0.0<br/>samples = 3<br/>value = [3, 0]<br/>class = Phish>, fillcolor="#e58139ff"] ;
637 -> 638 ;
639 [label=<double_slash_redirecting &le; 0.5<br/>entropy = 1.0<br/>samples = 20<br/>value = [10, 10]<br/>class = Phish>, fillcolor="#e5813900"] ;
637 -> 639 ;
640 [label=<entropy = 0.0<br/>samples = 2<br/>value = [2, 0]<br/>class = Phish>, fillcolor="#e58139ff"] ;
639 -> 640 ;
641 [label=<Page_Rank &le; 1.5<br/>entropy = 0.991<br/>samples = 18<br/>value = [8, 10]<br/>class = Not phish>, fillcolor="#399de533"] ;
639 -> 641 ;
642 [label=<entropy = 0.0<br/>samples = 3<br/>value = [0, 3]<br/>class = Not phish>, fillcolor="#399de5ff"] ;
641 -> 642 ;
643 [label=<Statistical_report &le; 0.5<br/>entropy = 0.997<br/>samples = 15<br/>value = [8, 7]<br/>class = Phish>, fillcolor="#e5813920"] ;
641 -> 643 ;
644 [label=<entropy = 0.0<br/>samples = 3<br/>value = [3, 0]<br/>class = Phish>, fillcolor="#e58139ff"] ;
643 -> 644 ;
645 [label=<Links_in_tags &le; 0.5<br/>entropy = 0.98<br/>samples = 12<br/>value = [5, 7]<br/>class = Not phish>, fillcolor="#399de549"] ;
643 -> 645 ;
646 [label=<Redirect &le; 0.5<br/>entropy = 0.811<br/>samples = 4<br/>value = [3, 1]<br/>class = Phish>, fillcolor="#e58139aa"] ;
645 -> 646 ;
647 [label=<entropy = 0.0<br/>samples = 3<br/>value = [3, 0]<br/>class = Phish>, fillcolor="#e58139ff"] ;
646 -> 647 ;
648 [label=<entropy = 0.0<br/>samples = 1<br/>value = [0, 1]<br/>class = Not phish>, fillcolor="#399de5ff"] ;
646 -> 648 ;
649 [label=<age_of_domain &le; 1.5<br/>entropy = 0.811<br/>samples = 8<br/>value = [2, 6]<br/>class = Not phish>, fillcolor="#399de5aa"] ;
645 -> 649 ;
650 [label=<DNSRecord &le; 1.5<br/>entropy = 1.0<br/>samples = 4<br/>value = [2, 2]<br/>class = Phish>, fillcolor="#e5813900"] ;
649 -> 650 ;
651 [label=<entropy = 0.0<br/>samples = 2<br/>value = [0, 2]<br/>class = Not phish>, fillcolor="#399de5ff"] ;
650 -> 651 ;
652 [label=<entropy = 0.0<br/>samples = 2<br/>value = [2, 0]<br/>class = Phish>, fillcolor="#e58139ff"] ;
650 -> 652 ;
653 [label=<entropy = 0.0<br/>samples = 4<br/>value = [0, 4]<br/>class = Not phish>, fillcolor="#399de5ff"] ;
649 -> 653 ;
654 [label=<Domain_registeration_length &le; 0.5<br/>entropy = 0.439<br/>samples = 44<br/>value = [40, 4]<br/>class = Phish>, fillcolor="#e58139e6"] ;
634 -> 654 ;
655 [label=<URL_Length &le; 2.0<br/>entropy = 0.579<br/>samples = 29<br/>value = [25, 4]<br/>class = Phish>, fillcolor="#e58139d6"] ;
654 -> 655 ;
656 [label=<entropy = 0.0<br/>samples = 6<br/>value = [6, 0]<br/>class = Phish>, fillcolor="#e58139ff"] ;
655 -> 656 ;
657 [label=<HTTPS_token &le; 1.5<br/>entropy = 0.667<br/>samples = 23<br/>value = [19, 4]<br/>class = Phish>, fillcolor="#e58139c9"] ;
655 -> 657 ;
658 [label=<entropy = 0.0<br/>samples = 1<br/>value = [0, 1]<br/>class = Not phish>, fillcolor="#399de5ff"] ;
657 -> 658 ;
659 [label=<age_of_domain &le; 0.5<br/>entropy = 0.575<br/>samples = 22<br/>value = [19, 3]<br/>class = Phish>, fillcolor="#e58139d7"] ;
657 -> 659 ;
660 [label=<entropy = 0.0<br/>samples = 1<br/>value = [0, 1]<br/>class = Not phish>, fillcolor="#399de5ff"] ;
659 -> 660 ;
661 [label=<age_of_domain &le; 1.5<br/>entropy = 0.454<br/>samples = 21<br/>value = [19, 2]<br/>class = Phish>, fillcolor="#e58139e4"] ;
659 -> 661 ;
662 [label=<entropy = 0.0<br/>samples = 10<br/>value = [10, 0]<br/>class = Phish>, fillcolor="#e58139ff"] ;
661 -> 662 ;
663 [label=<Abnormal_URL &le; 0.5<br/>entropy = 0.684<br/>samples = 11<br/>value = [9, 2]<br/>class = Phish>, fillcolor="#e58139c6"] ;
661 -> 663 ;
664 [label=<on_mouseover &le; 0.5<br/>entropy = 1.0<br/>samples = 2<br/>value = [1, 1]<br/>class = Phish>, fillcolor="#e5813900"] ;
663 -> 664 ;
665 [label=<entropy = 0.0<br/>samples = 1<br/>value = [1, 0]<br/>class = Phish>, fillcolor="#e58139ff"] ;
664 -> 665 ;
666 [label=<entropy = 0.0<br/>samples = 1<br/>value = [0, 1]<br/>class = Not phish>, fillcolor="#399de5ff"] ;
664 -> 666 ;
667 [label=<SFH &le; 1.0<br/>entropy = 0.503<br/>samples = 9<br/>value = [8, 1]<br/>class = Phish>, fillcolor="#e58139df"] ;
663 -> 667 ;
668 [label=<having_Sub_Domain &le; 1.5<br/>entropy = 0.918<br/>samples = 3<br/>value = [2, 1]<br/>class = Phish>, fillcolor="#e581397f"] ;
667 -> 668 ;
669 [label=<entropy = 0.0<br/>samples = 2<br/>value = [2, 0]<br/>class = Phish>, fillcolor="#e58139ff"] ;
668 -> 669 ;
670 [label=<entropy = 0.0<br/>samples = 1<br/>value = [0, 1]<br/>class = Not phish>, fillcolor="#399de5ff"] ;
668 -> 670 ;
671 [label=<entropy = 0.0<br/>samples = 6<br/>value = [6, 0]<br/>class = Phish>, fillcolor="#e58139ff"] ;
667 -> 671 ;
672 [label=<entropy = 0.0<br/>samples = 15<br/>value = [15, 0]<br/>class = Phish>, fillcolor="#e58139ff"] ;
654 -> 672 ;
673 [label=<age_of_domain &le; 1.5<br/>entropy = 0.991<br/>samples = 9<br/>value = [4, 5]<br/>class = Not phish>, fillcolor="#399de533"] ;
633 -> 673 ;
674 [label=<Domain_registeration_length &le; 0.5<br/>entropy = 0.918<br/>samples = 6<br/>value = [4, 2]<br/>class = Phish>, fillcolor="#e581397f"] ;
673 -> 674 ;
675 [label=<entropy = 0.0<br/>samples = 3<br/>value = [3, 0]<br/>class = Phish>, fillcolor="#e58139ff"] ;
674 -> 675 ;
676 [label=<URL_Length &le; 1.5<br/>entropy = 0.918<br/>samples = 3<br/>value = [1, 2]<br/>class = Not phish>, fillcolor="#399de57f"] ;
674 -> 676 ;
677 [label=<entropy = 0.0<br/>samples = 2<br/>value = [0, 2]<br/>class = Not phish>, fillcolor="#399de5ff"] ;
676 -> 677 ;
678 [label=<entropy = 0.0<br/>samples = 1<br/>value = [1, 0]<br/>class = Phish>, fillcolor="#e58139ff"] ;
676 -> 678 ;
679 [label=<entropy = 0.0<br/>samples = 3<br/>value = [0, 3]<br/>class = Not phish>, fillcolor="#399de5ff"] ;
673 -> 679 ;
680 [label=<web_traffic &le; 0.5<br/>entropy = 0.954<br/>samples = 40<br/>value = [15, 25]<br/>class = Not phish>, fillcolor="#399de566"] ;
632 -> 680 ;
681 [label=<having_At_Symbol &le; 0.5<br/>entropy = 0.503<br/>samples = 9<br/>value = [8, 1]<br/>class = Phish>, fillcolor="#e58139df"] ;
680 -> 681 ;
682 [label=<Statistical_report &le; 0.5<br/>entropy = 0.918<br/>samples = 3<br/>value = [2, 1]<br/>class = Phish>, fillcolor="#e581397f"] ;
681 -> 682 ;
683 [label=<entropy = 0.0<br/>samples = 2<br/>value = [2, 0]<br/>class = Phish>, fillcolor="#e58139ff"] ;
682 -> 683 ;
684 [label=<entropy = 0.0<br/>samples = 1<br/>value = [0, 1]<br/>class = Not phish>, fillcolor="#399de5ff"] ;
682 -> 684 ;
685 [label=<entropy = 0.0<br/>samples = 6<br/>value = [6, 0]<br/>class = Phish>, fillcolor="#e58139ff"] ;
681 -> 685 ;
686 [label=<Page_Rank &le; 1.5<br/>entropy = 0.771<br/>samples = 31<br/>value = [7, 24]<br/>class = Not phish>, fillcolor="#399de5b5"] ;
680 -> 686 ;
687 [label=<entropy = 0.0<br/>samples = 10<br/>value = [0, 10]<br/>class = Not phish>, fillcolor="#399de5ff"] ;
686 -> 687 ;
688 [label=<age_of_domain &le; 1.5<br/>entropy = 0.918<br/>samples = 21<br/>value = [7, 14]<br/>class = Not phish>, fillcolor="#399de57f"] ;
686 -> 688 ;
689 [label=<Links_pointing_to_page &le; 1.5<br/>entropy = 0.954<br/>samples = 8<br/>value = [5, 3]<br/>class = Phish>, fillcolor="#e5813966"] ;
688 -> 689 ;
690 [label=<entropy = 0.0<br/>samples = 3<br/>value = [3, 0]<br/>class = Phish>, fillcolor="#e58139ff"] ;
689 -> 690 ;
691 [label=<Domain_registeration_length &le; 0.5<br/>entropy = 0.971<br/>samples = 5<br/>value = [2, 3]<br/>class = Not phish>, fillcolor="#399de555"] ;
689 -> 691 ;
692 [label=<Request_URL &le; 0.5<br/>entropy = 0.918<br/>samples = 3<br/>value = [2, 1]<br/>class = Phish>, fillcolor="#e581397f"] ;
691 -> 692 ;
693 [label=<entropy = 0.0<br/>samples = 1<br/>value = [0, 1]<br/>class = Not phish>, fillcolor="#399de5ff"] ;
692 -> 693 ;
694 [label=<entropy = 0.0<br/>samples = 2<br/>value = [2, 0]<br/>class = Phish>, fillcolor="#e58139ff"] ;
692 -> 694 ;
695 [label=<entropy = 0.0<br/>samples = 2<br/>value = [0, 2]<br/>class = Not phish>, fillcolor="#399de5ff"] ;
691 -> 695 ;
696 [label=<Domain_registeration_length &le; 0.5<br/>entropy = 0.619<br/>samples = 13<br/>value = [2, 11]<br/>class = Not phish>, fillcolor="#399de5d1"] ;
688 -> 696 ;
697 [label=<entropy = 0.0<br/>samples = 7<br/>value = [0, 7]<br/>class = Not phish>, fillcolor="#399de5ff"] ;
696 -> 697 ;
698 [label=<SFH &le; 1.5<br/>entropy = 0.918<br/>samples = 6<br/>value = [2, 4]<br/>class = Not phish>, fillcolor="#399de57f"] ;
696 -> 698 ;
699 [label=<entropy = 0.0<br/>samples = 3<br/>value = [0, 3]<br/>class = Not phish>, fillcolor="#399de5ff"] ;
698 -> 699 ;
700 [label=<having_Sub_Domain &le; 1.5<br/>entropy = 0.918<br/>samples = 3<br/>value = [2, 1]<br/>class = Phish>, fillcolor="#e581397f"] ;
698 -> 700 ;
701 [label=<entropy = 0.0<br/>samples = 2<br/>value = [2, 0]<br/>class = Phish>, fillcolor="#e58139ff"] ;
700 -> 701 ;
702 [label=<entropy = 0.0<br/>samples = 1<br/>value = [0, 1]<br/>class = Not phish>, fillcolor="#399de5ff"] ;
700 -> 702 ;
703 [label=<having_IP_Address &le; 0.5<br/>entropy = 0.927<br/>samples = 117<br/>value = [40, 77]<br/>class = Not phish>, fillcolor="#399de57b"] ;
631 -> 703 ;
704 [label=<Links_in_tags &le; 0.5<br/>entropy = 0.948<br/>samples = 30<br/>value = [19, 11]<br/>class = Phish>, fillcolor="#e581396b"] ;
703 -> 704 ;
705 [label=<entropy = 0.0<br/>samples = 4<br/>value = [0, 4]<br/>class = Not phish>, fillcolor="#399de5ff"] ;
704 -> 705 ;
706 [label=<Submitting_to_email &le; 0.5<br/>entropy = 0.84<br/>samples = 26<br/>value = [19, 7]<br/>class = Phish>, fillcolor="#e58139a1"] ;
704 -> 706 ;
707 [label=<entropy = 0.0<br/>samples = 2<br/>value = [0, 2]<br/>class = Not phish>, fillcolor="#399de5ff"] ;
706 -> 707 ;
708 [label=<DNSRecord &le; 0.5<br/>entropy = 0.738<br/>samples = 24<br/>value = [19, 5]<br/>class = Phish>, fillcolor="#e58139bc"] ;
706 -> 708 ;
709 [label=<HTTPS_token &le; 1.5<br/>entropy = 0.918<br/>samples = 3<br/>value = [1, 2]<br/>class = Not phish>, fillcolor="#399de57f"] ;
708 -> 709 ;
710 [label=<entropy = 0.0<br/>samples = 2<br/>value = [0, 2]<br/>class = Not phish>, fillcolor="#399de5ff"] ;
709 -> 710 ;
711 [label=<entropy = 0.0<br/>samples = 1<br/>value = [1, 0]<br/>class = Phish>, fillcolor="#e58139ff"] ;
709 -> 711 ;
712 [label=<Links_pointing_to_page &le; 1.5<br/>entropy = 0.592<br/>samples = 21<br/>value = [18, 3]<br/>class = Phish>, fillcolor="#e58139d4"] ;
708 -> 712 ;
713 [label=<entropy = 0.0<br/>samples = 9<br/>value = [9, 0]<br/>class = Phish>, fillcolor="#e58139ff"] ;
712 -> 713 ;
714 [label=<SFH &le; 1.0<br/>entropy = 0.811<br/>samples = 12<br/>value = [9, 3]<br/>class = Phish>, fillcolor="#e58139aa"] ;
712 -> 714 ;
715 [label=<entropy = 0.0<br/>samples = 1<br/>value = [0, 1]<br/>class = Not phish>, fillcolor="#399de5ff"] ;
714 -> 715 ;
716 [label=<HTTPS_token &le; 0.5<br/>entropy = 0.684<br/>samples = 11<br/>value = [9, 2]<br/>class = Phish>, fillcolor="#e58139c6"] ;
714 -> 716 ;
717 [label=<entropy = 0.0<br/>samples = 1<br/>value = [0, 1]<br/>class = Not phish>, fillcolor="#399de5ff"] ;
716 -> 717 ;
718 [label=<Google_Index &le; 0.5<br/>entropy = 0.469<br/>samples = 10<br/>value = [9, 1]<br/>class = Phish>, fillcolor="#e58139e3"] ;
716 -> 718 ;
719 [label=<entropy = 0.0<br/>samples = 1<br/>value = [0, 1]<br/>class = Not phish>, fillcolor="#399de5ff"] ;
718 -> 719 ;
720 [label=<entropy = 0.0<br/>samples = 9<br/>value = [9, 0]<br/>class = Phish>, fillcolor="#e58139ff"] ;
718 -> 720 ;
721 [label=<Domain_registeration_length &le; 0.5<br/>entropy = 0.797<br/>samples = 87<br/>value = [21, 66]<br/>class = Not phish>, fillcolor="#399de5ae"] ;
703 -> 721 ;
722 [label=<Links_pointing_to_page &le; 1.5<br/>entropy = 0.954<br/>samples = 8<br/>value = [5, 3]<br/>class = Phish>, fillcolor="#e5813966"] ;
721 -> 722 ;
723 [label=<entropy = 0.0<br/>samples = 4<br/>value = [4, 0]<br/>class = Phish>, fillcolor="#e58139ff"] ;
722 -> 723 ;
724 [label=<having_At_Symbol &le; 1.0<br/>entropy = 0.811<br/>samples = 4<br/>value = [1, 3]<br/>class = Not phish>, fillcolor="#399de5aa"] ;
722 -> 724 ;
725 [label=<entropy = 0.0<br/>samples = 1<br/>value = [1, 0]<br/>class = Phish>, fillcolor="#e58139ff"] ;
724 -> 725 ;
726 [label=<entropy = 0.0<br/>samples = 3<br/>value = [0, 3]<br/>class = Not phish>, fillcolor="#399de5ff"] ;
724 -> 726 ;
727 [label=<Submitting_to_email &le; 1.5<br/>entropy = 0.727<br/>samples = 79<br/>value = [16, 63]<br/>class = Not phish>, fillcolor="#399de5be"] ;
721 -> 727 ;
728 [label=<Iframe &le; 0.5<br/>entropy = 0.906<br/>samples = 28<br/>value = [9, 19]<br/>class = Not phish>, fillcolor="#399de586"] ;
727 -> 728 ;
729 [label=<SFH &le; 1.0<br/>entropy = 0.567<br/>samples = 15<br/>value = [2, 13]<br/>class = Not phish>, fillcolor="#399de5d8"] ;
728 -> 729 ;
730 [label=<entropy = 0.0<br/>samples = 1<br/>value = [1, 0]<br/>class = Phish>, fillcolor="#e58139ff"] ;
729 -> 730 ;
731 [label=<Submitting_to_email &le; 0.5<br/>entropy = 0.371<br/>samples = 14<br/>value = [1, 13]<br/>class = Not phish>, fillcolor="#399de5eb"] ;
729 -> 731 ;
732 [label=<HTTPS_token &le; 1.0<br/>entropy = 0.811<br/>samples = 4<br/>value = [1, 3]<br/>class = Not phish>, fillcolor="#399de5aa"] ;
731 -> 732 ;
